-0.0153436
-0.147145
-0.170215
0.262
0.15778
-0.0467856
-0.213767
-0.566029
0.202807
-0.384094
-0.0782954
-0.15519
-0.041586
0.164856
-0.0336607
0.653074
0.0396157
-0.0525009
-0.547232
0.154582
0.535205
-0.224765
-0.332567
0.1801
-0.706974
0.0864066
-0.315534
0.332652
-0.0978024
-0.20816
-0.228917
-0.172294
-0.563984
-0.15904
0.506173
0.0869476
0.0831573
-0.425008
0.157089
0.162615
0.240535
-0.400683
-0.380269
0.310789
0.292751
0.029617
-0.243449
-0.0329252
0.0660803
-0.231341
0.135712
0.316024
0.0699803
0.599632
-0.0196547
-0.0753529
0.437318
0.335118
0.190228
0.126715
0.814747
0.196464
0.291016
-0.0738896
-0.391353
0.062033
-0.39943
-0.0340529
-0.317542
0.0707915
-0.046931
-0.343431
0.0904017
0.0676063
0.170379
-0.241394
0.350701
-0.0764411
0.194699
-0.70325
-0.375536
0.195104
0.364159
0.00905027
-0.180666
0.234662
0.0060937
0.510587
0.404184
-0.229098
0.07161
0.0396912
0.542525
-0.423637
0.516423
0.334933
-0.0124619
0.44495
0.0123212
-0.106527
-0.128944
0.164007
-0.229451
0.166617
0.268167
0.173632
-0.16168
-0.10931
-0.698812
0.308806
0.00676018
-0.183225
-0.152607
0.133865
0.0113878
0.403395
-0.229157
0.103802
0.16878
-0.317678
0.0645565
-0.0599429
-0.292681
0.153268
-0.369606
-0.307056
0.179609
-0.00488651
-0.1433
0.205258
-0.0166807
0.0591828
0.338984
0.46798
-0.328807
0.558314
-0.0894899
-0.322584
0.0253241
0.000861133
0.343313
-0.424164
0.0456182
-0.354815
-0.115817
0.0948402
0.194311
-0.396121
0.0059042
0.0422895
-0.0904895
-0.183859
0.450665
-0.0511083
-0.110077
-0.345504
0.0628063
0.425725
-0.336355
-0.135913
0.259717
-0.18161
0.0893597
0.124579
0.155991
-0.260082
0.105513
-0.00446976
-0.0121857
0.743676
-0.0418671
0.383228
0.1297
-0.335099
-0.241178
0.273343
-0.0198685
-0.0980268
0.236481
-0.207774
0.461516
0.553373
0.465492
0.11142
-0.332308
0.0667719
0.0238966
-0.320287
-0.0783573
-0.0274436
-0.158117
-0.047756
0.296963
0.367939
-0.0422718
-0.203171
-0.0916234
-0.100231
0.421611
0.36864
-0.0649916
-0.725642
0.249546
0.395319
0.0495593
0.030471
-0.132499
-0.0102838
-0.216522
0.109052
0.147939
0.25579
0.137656
0.0349493
-0.374483
-0.201502
0.297157
-0.110081
0.287361
-0.111437
-0.214901
-0.145504
-0.234771
-0.0343953
-0.523434
-0.289739
-0.34616
-0.118995
-0.263935
-0.1419
0.014242
-0.272795
-0.0565316
-0.135285
0.0395175
-0.0356409
-0.177001
0.226475
0.00964958
0.0651388
-0.120604
-0.265369
0.181734
0.0534485
0.0928968
-0.636034
-0.0154511
-0.402414
0.0547294
-0.035748
0.209688
0.208898
-0.323637
0.18972
-0.171252
-0.0650688
-0.0137382
-0.0883376
-0.205811
0.0292809
-0.511296
-0.17944
-0.389593
0.417131
0.159213
-0.17626
-0.0619469
-0.199721
0.175156
-0.18229
-0.24707
0.101341
-0.645089
0.036004
0.320929
-0.398704
-0.294629
0.35688
0.200394
-0.152367
0.226407
-0.218931
0.412222
0.46665
0.0463977
0.169896
-0.479788
0.319244
0.243994
0.447882
-0.113083
0.36616
-0.208766
-0.225899
-0.407026
0.00443323
0.394647
-0.514937
0.237914
-0.521478
0.393697
-0.144592
-0.147064
0.00262534
0.138349
-0.0545249
0.258022
-0.201668
-0.147326
0.223208
0.382697
-0.270118
0.00123889
-0.131309
0.0389777
0.220897
0.0392859
-0.173191
-0.0609124
-0.178108
0.074157
-0.1399
-0.0978288
-0.115197
0.15335
-0.147931
0.164165
-0.132914
-0.151955
-0.0528753
-0.113285
0.180972
-0.310109
-0.096286
-0.24931
-0.316905
0.0770181
-0.226802
0.0158459
0.136197
-0.51259
-0.176911
-0.168523
0.248732
-0.164167
-0.0293919
0.13369
0.101467
-0.0123888
-0.0811315
0.173923
-0.3545
-0.0234021
-0.120452
-0.0154436
0.0535232
-0.0510841
0.336678
0.124362
-0.0565048
0.324992
-0.266529
-0.0694717
0.186952
-0.0402856
-0.206484
-0.127877
-0.342049
-0.365642
-0.0519458
0.0611679
0.330288
0.0845978
0.0321075
-0.275403
-0.0847269
0.122367
0.0333941
-0.0282433
-0.160239
0.0198845
-0.255215
0.25734
-0.0444372
0.466221
0.103145
0.0331254
-0.0922703
-0.0382706
0.208897
0.212879
-0.00815018
0.168211
0.252157
0.0454535
-0.0378805
-0.0572007
-0.0256455
-0.146561
0.0460952
-0.0203732
-0.0142476
0.10712
0.184938
-0.07675
-0.0814813
-0.0115325
-0.155858
-0.19364
-0.0273096
0.00692276
0.232831
-0.0156233
0.194039
0.11854
-0.159043
-0.214288
0.121023
-0.204881
0.097991
-0.196182
-0.113127
0.143813
-0.347653
0.0571552
-0.22606
-0.240863
-0.241001
-0.537081
0.194062
-0.0700628
-0.293063
0.453357
-0.150077
0.378684
0.184185
0.0613059
-0.11942
0.246205
-0.183628
-0.282669
-0.0575012
0.124072
-0.155509
0.413567
0.259536
0.0290807
0.156193
0.204542
0.0604962
0.0822443
-0.162508
0.125492
-0.243582
-0.0254393
-0.00200736
0.0606042
-0.180038
0.123021
-0.116626
0.259292
0.0917105
0.046548
-0.0275274
0.0858505
0.237886
-0.0743197
0.0744785
-0.0377701
0.0420062
0.140178
-0.0586171
-0.217828
0.0853376
-0.0238613
0.140588
0.128113
0.316772
-0.11179
0.0539981
0.133275
0.0459743
0.243381
0.0286724
-0.188673
-0.224734
-0.0601961
0.149296
-0.143691
0.072193
-0.0903342
-0.262419
-0.109935
0.0626922
0.432873
-0.200128
0.136224
-0.251337
0.224763
-0.128017
-0.0693801
-0.0240448
0.0481169
0.0152794
0.202038
-0.263005
0.00648276
-0.0970842
0.358464
0.108437
0.0369585
-0.0466646
0.164502
-0.212929
-0.0297037
-0.0216457
-0.048477
0.150315
-0.105059
0.18009
-0.133135
0.0223485
0.190451
-0.0534891
0.072354
0.230884
0.21155
-0.0127204
0.00359068
0.219928
-0.0785645
-0.222194
0.136241
-0.139222
-0.0379627
0.407873
0.0467135
-0.441393
0.127024
-0.289426
0.186402
0.083121
-0.139835
-0.0364413
-0.0853773
-0.170827
-0.0943048
-0.243818
0.047901
0.0850303
0.0348024
0.0994183
0.0915948
0.10705
-0.186734
0.0198063
0.079806
0.077528
0.242853
-0.171559
-0.670103
0.290846
-0.18196
-0.0334498
-0.121383
-0.254263
-0.00774083
-0.0130352
0.192278
-0.173464
0.0143832
0.00456056
-0.00322519
0.233634
-0.196491
-0.180327
-0.0736567
0.143716
-0.249518
-0.154778
0.174236
-0.00374059
0.142295
0.0908081
-0.0731728
0.0522844
0.203255
-0.0311075
-0.0559124
-0.0876004
-0.0274792
-0.237779
0.167849
-0.0697102
0.0759271
0.0913996
0.459906
-0.288061
-0.0182266
0.0692144
0.0908567
0.162182
-0.101725
-0.268492
-0.297365
0.427548
-0.510877
-0.0485645
-0.00286994
0.103469
0.476792
-0.361415
-0.253014
-0.0101678
0.0647571
-0.104254
-0.387463
-0.0848595
0.110867
0.0525481
-0.24866
-0.436263
-0.204705
-0.33448
0.216219
-0.157174
-0.180419
0.0364971
0.307362
-0.044567
0.181872
-0.0562207
0.270624
-0.0555564
0.137797
0.0441311
0.00488352
-0.236118
0.0314064
-0.0597596
-0.174792
0.227746
-0.174338
0.090532
-0.098064
0.00849948
-0.0332535
0.0257356
-0.43337
-0.0306145
0.176774
-0.267077
0.242409
-0.139542
0.0330824
-0.0647479
-0.0717727
-0.240566
-0.05563
0.100836
-0.00861139
0.0676008
-0.243785
-0.0825001
-0.148715
0.346216
-0.103628
0.0160825
0.200644
0.0505104
0.0178315
0.0863371
0.174714
0.216782
-0.0429066
0.0231928
0.0632959
-0.0898023
0.0170306
0.183163
-0.416203
-0.278244
0.516933
0.0846068
0.107349
0.157448
-0.143294
0.102931
-0.435907
0.209502
-0.258183
-0.0425558
0.0183971
0.141804
0.0364094
-0.131977
0.290324
0.28687
0.00654914
-0.0384741
-0.0140681
-0.318289
0.105237
0.0144933
-0.123452
-0.0517641
0.232606
-0.134116
0.045591
-0.0086848
-0.0629287
0.134216
-0.102346
-0.143884
0.21955
-0.144792
0.383344
-0.168919
0.0645647
-0.165225
0.0270822
0.44472
-0.12509
0.0538391
-0.0518759
-0.0293601
0.0829642
0.0459171
-0.0055189
0.191308
0.0246681
-0.00331092
0.182517
0.437849
0.152095
-0.020456
0.253668
-0.0474806
0.271658
0.0888394
-0.232025
-0.215855
-0.312552
0.038328
0.300826
-0.142864
0.238072
0.115203
-0.267833
-0.139996
-0.201168
0.403132
0.028449
-0.0126039
0.065513
-0.0855168
-0.129689
0.344819
-0.122719
-0.0670948
-0.115803
0.319145
-0.0279379
0.413629
-0.225123
0.193891
0.276846
-0.14278
-0.254827
0.0331597
-0.050352
-0.260785
0.02013
0.00122116
0.00176226
0.428147
0.391891
-0.152778
-0.118423
-0.0935777
-0.120998
0.14119
0.0214579
0.0487785
0.286715
-0.138071
0.183259
-0.127311
-0.0190388
0.0382044
0.338479
0.0269021
-0.0597952
-0.340103
-0.138933
0.0819318
0.0246103
-0.195957
0.203211
-0.0303493
0.180144
0.313118
-0.108829
0.398023
0.19899
0.142632
0.181461
-0.00585476
0.1076
0.221753
-0.197628
0.0436636
0.101696
-0.251489
-0.0434477
-0.100156
-0.0554626
-0.155887
0.155812
-0.152975
0.0427039
0.0192584
0.373756
-0.00762317
-0.0183684
-0.0347718
-0.291746
-0.0127719
-0.0699243
-0.165909
-0.209224
-0.0117274
-0.426943
-0.243754
-0.104085
0.0378692
-0.0743513
-0.0644418
0.0998462
-0.33171
0.0343165
0.16681
0.176386
-0.156618
-0.26899
-0.0759755
0.107668
-0.0437954
-0.0646211
0.0789872
-0.166551
0.185198
0.156959
0.330585
-0.189008
-0.0120103
0.160035
0.0341198
0.263095
0.0313443
0.117385
0.0582213
0.14571
-0.15003
0.0459179
-0.153121
0.0718775
-0.062391
-0.368799
0.172136
-0.0624139
0.00161203
0.0198221
0.153026
0.116237
0.193951
-0.232959
0.242682
0.227298
0.2756
-0.25971
0.0261803
-0.0629195
-0.0760859
-0.0275445
0.0537049
0.135237
-0.0146946
-0.203682
0.0934586
-0.141039
-0.318968
-0.344825
-0.209227
0.289611
0.347115
0.273874
-0.132452
-0.0395203
-0.13023
0.0390804
-0.0874403
0.0771903
0.0737677
-0.145402
-0.418193
0.00723599
0.0196167
0.155697
0.120561
0.0986468
-0.218933
-0.0242055
0.219949
0.0722763
0.185456
-0.0379089
0.348025
-0.0703805
-0.253206
0.123801
-0.120956
-0.202799
0.175373
0.342982
0.0315229
0.198374
-0.0412696
0.145918
-0.0630475
0.037174
0.117669
0.102866
0.274909
-0.198249
0.241659
-0.0770288
-0.00951344
-0.192214
0.191051
-0.0493675
0.13645
0.107053
0.0894057
0.156486
0.213397
0.410228
-0.0622159
0.119628
0.0228915
0.117338
-0.268165
0.394899
-0.0396397
-0.216343
-0.0876314
-0.0792367
-0.325497
-0.353796
-0.128633
0.24141
0.0455012
0.147113
0.0904996
0.0826561
0.106383
-0.353254
-0.166684
0.0457763
-0.271115
-0.0565869
0.280597
-0.0126313
0.210049
0.240101
-0.173643
-0.088108
-0.0238543
-0.20599
0.0785412
-0.316032
0.0238992
0.256114
-0.100159
0.164719
0.102969
0.217359
-0.0778615
-0.20665
0.0125879
0.0653692
0.184723
0.201666
0.0270458
-0.043004
0.204341
0.015915
-0.250353
0.0634607
0.210549
0.256652
-0.0589622
-0.19427
-0.0017643
-0.345391
-0.117914
-0.0420828
-0.395904
-0.329644
0.0559837
-0.0758978
-0.316482
0.0125898
-0.518693
0.127254
-0.028591
0.454802
-0.0743704
-0.135756
0.115078
0.0631806
0.0429699
-0.100915
0.160145
-0.325736
0.106262
0.210814
0.0125789
0.369906
-0.279081
0.174891
-0.270628
0.281753
-0.0406941
0.252563
0.119847
-0.135366
0.151659
0.22478
-0.0442987
0.00777951
0.0990035
-0.319104
-0.329624
-0.279083
-0.0996745
-0.031579
0.00680427
0.145339
0.440475
-0.00967952
0.143805
0.277114
0.0464656
0.128197
-0.0192163
0.29856
-0.00206252
0.0941201
0.100343
0.322062
0.201635
-0.126973
-0.283119
-0.282239
-0.0681289
-0.0369486
-0.288698
-0.0904465
0.020685
-0.133747
0.144383
0.0395777
0.428319
0.121338
-0.11042
0.0115874
-0.181132
-0.0117237
0.148305
0.197238
-0.0673259
0.154052
-0.0235945
0.302212
0.319486
-0.0136559
0.133662
0.142246
-0.322841
0.181106
-0.0557806
0.00111748
-0.233367
0.168521
0.0211155
-0.123783
0.0358991
0.385898
0.021715
0.26381
0.0459247
0.052616
0.168331
-0.203102
0.0673924
-0.271976
0.109107
0.0906425
0.0392967
0.228604
0.0812757
-0.0358074
-0.0909529
-0.00471784
-0.363185
0.265242
0.335016
0.112392
0.0516068
-0.184123
0.26158
-0.051353
-0.168839
-0.00462753
-0.109412
-0.00626103
-0.0297526
0.091209
0.01636
-0.00488306
0.134187
0.204083
-0.206745
-0.266859
-0.204404
0.186022
0.0372482
-0.498423
0.0265117
0.0273339
-0.256977
0.0658509
-0.0626833
-0.126554
-0.117729
0.214362
0.00264334
-0.110663
0.088326
-0.0890758
0.412618
-0.0850629
0.218888
-0.120429
-0.389764
-0.271974
-0.111106
-0.199485
-0.0348676
0.0447124
0.0821187
0.279103
-0.0628463
-0.402055
-0.0246312
-0.108745
-0.241569
-0.224145
-0.117422
0.0534913
-0.00849641
0.0401167
0.141327
0.389995
0.0696038
0.121088
0.153945
0.349831
-0.0149477
-0.046558
0.202997
-0.239785
0.148914
-0.229553
-0.0961686
-0.17541
-0.0442004
-0.270255
0.0517488
0.126605
-0.196478
0.0268365
0.0603729
-0.0597337
-0.213214
-0.0608926
-0.332896
0.0271804
0.391463
-0.199758
-0.0346243
-0.095558
-0.358585
0.327997
0.162835
-0.031572
0.206509
0.345209
0.145103
-0.0497157
0.268511
0.0183364
0.186736
-0.195129
-0.266039
-0.166826
-0.0800383
-0.0839416
0.0232175
-0.172223
0.302653
-0.561611
-0.282224
0.101471
0.261528
-0.116129
0.105104
0.0907748
-0.240648
0.258899
0.0579383
0.0133979
-0.257272
0.217087
-0.0333892
-0.228318
0.226364
-0.269794
-0.317289
-0.155533
-0.0351776
0.147497
0.332651
0.186038
-0.0268082
0.197171
0.132492
-0.021763
0.0489188
0.0688818
0.216833
-0.178854
0.00271119
0.0149377
-0.13003
0.364609
0.00318805
0.0275709
0.298032
0.185644
0.0117131
-0.0888914
-0.23464
-0.0325727
-0.138718
0.165113
-0.138381
-0.0339179
0.110823
-0.0978248
0.27594
-0.400881
-0.259325
0.0161382
-0.0912514
-0.245717
-0.481102
-0.16342
-0.0603656
-0.194542
-0.0127283
0.230367
0.197818
0.104654
0.0281365
0.00138897
-0.110244
0.114684
0.300697
0.213729
-0.118164
0.169724
0.0239253
0.125749
-0.072951
0.0903422
0.338928
-0.178859
0.222923
0.0772611
0.0721732
-0.130382
0.149144
-0.0412627
-0.000816238
-0.120275
-0.0160887
-0.167837
-0.118637
0.234642
-0.0545689
0.109666
0.180602
-0.123476
0.00410982
0.555882
-0.0977159
-0.114986
0.150151
0.12217
0.195836
-0.0494772
0.137156
-0.265247
-0.151228
0.328346
-0.107726
0.162526
0.0603452
-0.0749705
0.155171
-0.172222
-0.082608
-0.192563
0.083622
-0.0670398
-0.112806
0.0514646
0.186581
0.0630368
-0.32364
-0.158498
-0.0332677
-0.267773
-0.130947
-0.17209
-0.185005
-0.237331
-0.0690167
-0.402932
0.00918943
0.0873606
0.185742
-0.207103
-0.28375
-0.515684
0.0509062
0.299488
0.152881
-0.0988033
-0.094555
0.0386819
-0.271309
-0.114198
0.215043
-0.0865242
0.464349
-0.0538906
0.0213783
0.168491
0.268129
-0.00607074
0.115266
0.259385
0.157978
-0.161492
-0.0643058
0.313241
-0.0320764
0.0961244
-0.184865
-0.0805911
0.0911655
0.022889
0.37302
0.216683
0.0859823
-0.447036
-0.120355
-0.0865034
-0.0151226
-0.0309576
-0.0068377
-0.0340264
-0.0971582
-0.025326
0.0934152
0.125645
0.177329
-0.17546
-0.0725753
-0.126833
-0.17154
0.132182
0.066602
0.384391
0.163644
-0.136878
0.0602443
0.155379
0.0188476
0.139411
0.00208758
0.196555
0.24225
-0.136057
-0.201693
-0.107759
0.148599
-0.0176362
0.28525
0.118331
-0.0794255
-0.165022
-0.0237213
-0.210997
-0.0518072
0.170203
0.0542704
0.0741834
0.320217
-0.0981985
-0.085559
-0.115896
-0.145356
-0.115445
-0.0612981
0.0342995
0.141958
0.103942
-0.288768
-0.173044
0.600686
-0.0212685
-0.0728362
0.283125
-0.277708
-0.523824
-0.270752
0.241039
0.0123351
-0.128336
-0.179128
-0.153283
0.00416457
-0.0994618
0.101176
0.251926
0.057285
-0.262525
-0.0240769
-0.207033
-0.0861347
-0.169759
0.159173
-0.0986948
-0.167029
-0.109584
0.184224
-0.134249
-0.0482418
0.462938
0.248351
0.0237776
0.0765241
0.237483
-0.253888
-0.212357
0.194467
0.443033
0.267714
0.172378
-0.135818
-0.072414
-0.0514281
-0.140903
0.142715
-0.209164
-0.134993
0.297526
-0.058169
0.228386
0.313517
0.0475833
-0.0729741
0.165671
-0.00951044
-0.050337
-0.0410984
-0.138603
0.0745585
0.254592
-0.00858703
-0.165053
0.102253
0.00756556
0.157177
0.105847
-0.0195626
-0.0779068
0.00762934
-0.0727585
0.0502946
-0.184618
-0.233139
0.221077
0.0297545
0.0473657
0.353342
0.232275
-0.17866
-0.304115
-0.076613
-0.0811499
-0.386137
-0.05142
0.0193324
0.150418
0.178004
-0.014498
-0.0944671
0.259037
0.282632
-0.0832617
0.05015
-0.243201
0.220406
0.0620503
0.0606739
-0.00877369
0.220766
-0.277433
0.0420409
0.076365
0.0494037
0.0978563
0.404411
-0.0705011
0.0662361
-0.184329
0.0262421
0.0386254
-0.0690606
-0.267567
-0.110913
-0.123897
-0.0726901
0.190541
0.0410167
-0.183157
0.038473
0.0645691
-0.206089
-0.293979
0.0938658
0.012845
0.424764
0.063276
0.386777
0.0265309
0.0808694
0.258106
0.0583094
0.0768525
0.245224
0.0540548
-0.300572
0.155187
0.102197
0.21858
0.140812
-0.149585
-0.0312759
-0.000238331
0.161565
0.243693
0.150574
-0.109674
-0.133792
-0.0719244
0.162278
-0.0427573
0.0417054
0.0626083
-0.139632
0.0583334
-0.109532
-0.308602
0.0376463
0.0154081
0.283172
0.320768
-0.22627
0.10453
-0.433497
0.0765838
0.326527
-0.0968567
-0.0432957
-0.0263565
0.219573
0.321174
-0.0348275
-0.17079
-0.349744
-0.230841
0.0244586
-0.450894
-0.0134342
0.109515
-0.30411
0.213929
0.142447
0.0554153
-0.0148569
-0.0976366
-0.0286236
0.205917
0.150329
-0.240287
0.0350549
-0.0439797
-0.3217
-0.141658
-0.189127
-0.208524
0.326796
0.208772
-0.164976
0.0611409
-0.17702
-0.0197399
0.107236
0.0797749
-0.450169
0.0115917
0.0697596
-0.252094
-0.00234551
0.0656025
-0.0509275
-0.155821
0.0235034
-0.0873666
0.493443
-0.0541853
0.304517
-0.239945
-0.0247815
-0.137613
0.105009
0.0327596
0.131527
-0.106167
0.277271
0.275759
-0.208642
0.0936458
-0.233852
-0.104326
-0.242411
-0.0030963
-0.074191
0.0173191
-0.127473
0.0424461
-0.00644267
0.159258
-0.0568379
-0.016157
-0.0574321
0.0559814
-0.102478
-0.192692
-0.143654
0.282108
0.0307785
-0.00219568
0.106617
0.0721588
0.135307
-0.406987
-0.31663
-0.0546292
0.20706
0.028071
0.176699
0.0451454
0.014521
0.08806
0.0107034
0.00722232
-0.0516715
-0.265543
0.281313
0.246832
0.21593
-0.0882986
-0.293873
-0.185093
-0.374052
-0.104345
0.196609
-0.160087
0.0618704
0.118104
0.0315877
0.0797729
0.128728
0.229904
-0.233266
-0.0214448
-0.28407
0.0137695
-0.266742
0.254245
0.117837
0.171069
0.164982
0.0327136
-0.254008
0.35516
-0.185394
0.102486
-0.0321597
0.184104
-0.0294576
0.10979
0.0220018
0.167349
-0.0387831
-0.0202439
0.0708162
-0.580216
-0.165671
-0.0888495
0.0914411
0.180482
0.169973
-0.154189
0.364444
-0.129307
-0.229653
0.0924054
-0.0692304
-0.0744445
0.102735
-0.325457
0.144374
0.0901797
0.0902114
-0.114242
-0.0618428
0.099647
0.081285
-0.0314779
0.116068
0.0173805
-0.212212
0.118152
0.320565
-0.0171389
-0.053457
-0.126535
0.252292
-0.0450798
0.0963143
-0.118413
-0.180185
-0.0217861
-0.0587861
-0.147216
0.00619951
0.332454
0.17927
0.109701
-0.321823
0.533586
0.124747
0.0953323
-0.0480626
0.117672
0.232118
-0.0221675
-0.122302
0.285649
0.10514
-0.212381
-0.173621
-0.0185963
-0.00453802
0.0902228
0.22213
0.260256
-0.115479
-0.0524157
-0.195135
-0.121006
-0.229047
0.038649
0.176587
-0.0611601
0.100178
-0.0185822
0.203407
-0.0652323
-0.052739
-0.0985281
-0.0437827
-0.203536
-0.109111
0.14701
0.300098
0.0837483
-0.0315805
-0.284878
-0.0827102
0.0699859
-0.209218
0.119685
-0.202707
-0.00896258
-0.0683651
-0.197414
-0.350456
0.116404
-0.0187828
-0.0707445
0.0878923
-0.214898
0.205464
0.0532397
-0.452538
-0.00736896
0.167151
0.0242332
-0.164114
0.111966
-0.233484
0.322163
-0.0474362
-0.00939256
-0.0565833
0.301689
0.0627126
-0.043852
-0.0246411
-0.147346
-0.293387
-0.0148446
-0.138396
-0.0652371
-0.0673651
-0.0413256
0.139909
0.109421
0.156858
-0.0914939
0.291804
-0.1713
0.0363985
-0.0157086
0.225513
0.0180415
-0.0837291
0.147169
-0.0289057
-0.150135
0.00412179
0.0522688
-0.18134
0.00984073
0.0050619
-0.0600695
-0.227599
0.165176
-0.137546
0.407502
0.213105
-0.133503
0.0081727
-0.0967045
-0.211137
0.22469
-0.231918
-0.0980145
0.0808572
-0.247685
0.136765
0.176306
-0.0390355
-0.138674
-0.0730564
0.00586974
0.0170331
0.362855
-0.0531935
0.00758443
-0.560011
0.161709
-0.19686
0.253842
-0.177711
0.00430805
-0.137607
0.0267904
-0.150551
0.311061
-0.0566932
0.173663
-0.16558
0.259092
0.269279
0.310051
0.00145934
-0.135261
-0.0338313
0.112628
-0.156121
-0.0904747
0.16678
-0.327246
0.236498
0.114042
-0.0513295
-0.0144127
-0.0770634
-0.144602
-0.194783
-0.0367825
0.263037
-0.272716
0.166786
-0.109512
-0.24645
0.0403285
-0.140846
0.113068
-0.121039
-0.18161
0.221867
0.0911962
-0.0260951
0.0232798
0.0130105
0.126772
0.0728724
0.415398
-0.414405
-0.00418691
0.137312
0.0979339
0.15788
-0.134423
-0.208429
0.134033
0.132746
-0.112487
-0.0892609
0.0079658
0.0779028
-0.0386874
-0.26399
-0.116684
-0.137748
0.0505076
0.156188
-0.0118046
0.191031
-0.0739773
0.0528696
0.0373277
-0.265002
0.0409964
-0.0668769
0.163231
-0.293437
-0.287557
-0.00820156
0.323601
0.185561
0.0788262
0.0899094
-0.0441704
0.12596
0.079086
-0.242605
-0.172499
0.202579
0.0767818
-0.00197361
-0.0403315
-0.238091
0.0178651
-0.272838
-0.107161
-0.0243369
0.0939883
0.143452
-0.567236
0.0200265
0.064565
0.231894
0.552282
0.0589965
0.0633102
0.0451149
0.249137
-0.0429448
0.121773
-0.127558
0.0992734
-0.137728
-0.067203
-0.19046
-0.127669
-0.242209
-0.0284127
0.20171
-0.285439
-0.0748479
-0.0491278
0.227209
0.121469
0.122743
-0.0517175
-0.240831
0.241209
-0.251084
0.073076
0.0502905
0.264209
-0.0403026
-0.136507
0.0438799
0.234295
0.156553
-0.177908
-0.408502
-0.227358
-0.289121
0.225833
0.0536185
0.128781
-0.431782
-0.0311947
0.0908086
-0.0751925
0.0581699
0.0198401
-0.353753
0.122103
0.10095
-0.431542
-0.157456
-0.2798
-0.0408449
0.123376
-0.0354581
-0.260909
0.114395
-0.0111923
0.118231
-0.394521
0.174493
0.16627
0.178148
-0.193553
-0.102492
0.23271
-0.0725239
-0.0411831
-0.168322
-0.37294
-0.298959
0.0988167
0.362171
0.186657
-0.114379
0.174326
0.150589
0.0200571
0.00537343
0.198736
-0.0685699
0.118008
0.203348
-0.393844
-0.0831268
0.288081
0.248423
0.194727
0.0506077
-0.203174
0.133511
-0.08817
-0.0422269
0.374772
0.109564
0.127076
0.0564612
-0.0940754
-0.137843
-0.0951626
0.375494
-0.0867137
0.0783931
0.241439
0.0454744
0.090803
-0.0210922
0.124235
-0.00428263
-0.0906722
0.157148
-0.20574
-0.037733
0.0487555
-0.250731
-0.00275489
-0.194519
0.132375
-0.143821
-0.0710954
0.0671353
0.156513
0.241979
0.145809
-0.0790357
-0.40257
-0.311245
-0.345692
0.255907
-0.192168
-0.183379
0.170537
-0.26027
0.229179
-0.138421
-0.0386883
-0.279434
0.283018
-0.0866506
-0.0356781
-0.231326
-0.0501403
0.0706347
0.0336753
-0.0898038
0.156382
0.112505
-0.0660037
-0.209044
-0.163099
-0.0737383
-0.0212303
0.0251647
0.0477383
-0.0582111
-0.0616959
0.0928746
0.232599
0.0691971
-0.0197832
0.0804473
-0.044427
0.0682912
-0.101371
0.143049
-0.118088
-0.0633592
0.0871122
-0.157005
0.019996
-0.133639
0.125171
0.369209
0.0594759
0.0140416
-0.0241693
0.0738356
0.28535
-0.255686
0.024397
0.134878
-0.105756
-0.252189
-0.328625
-0.0767105
-0.139727
-0.0687144
-0.0200754
-0.224226
-0.354482
0.314416
-0.189382
-0.0558829
-0.216715
-0.345173
-0.0390911
-0.0838346
0.14082
-0.0868705
0.261235
0.424545
0.220738
-0.00717448
0.163442
0.0426829
-0.0517307
-0.0665612
-0.118203
0.335388
0.0530986
-0.237839
0.144305
0.15997
-0.0855764
-0.123043
-0.252768
-0.0756094
-0.0776984
-0.226256
0.092285
0.0228406
0.240664
-0.0856772
-0.176276
-0.205352
-0.0953217
-0.272195
-0.0619113
0.183607
0.102535
-0.0393272
-0.378318
-0.0492962
0.0810682
0.0601789
0.00692911
-0.0126581
0.0319927
-0.00629129
-0.375188
-0.0977678
0.0771046
0.334383
-0.273155
0.120226
-0.0257968
-0.0358037
0.059028
-0.0369632
-0.182577
-0.196609
0.241592
0.352677
0.0900018
0.206598
0.127759
-0.144576
-0.147754
-0.0652798
-0.174786
0.275832
-0.182383
-0.380668
-0.165549
-0.391834
0.111397
0.0780234
0.0800979
0.095161
-0.221073
0.00303427
0.320199
-0.103623
0.233275
0.0963904
0.259948
0.0964022
-0.332289
0.246322
-0.0267416
-0.0436279
-0.260632
0.156753
-0.135185
0.0938812
0.110248
0.350997
-0.164068
-0.138078
0.172769
0.258399
0.152756
-0.0398907
-0.0444829
0.00229826
-0.240383
-0.152501
-0.0887415
0.0585311
-0.165309
0.138466
0.310969
-0.199543
-0.187342
-0.244717
-0.0950761
0.0435252
0.119995
0.312294
-0.217285
-0.179121
0.0152051
-0.356135
-0.158269
-0.312508
0.213032
-0.0738509
-0.235301
-0.0963935
0.156059
0.565689
-0.0106917
-0.27676
0.0562975
-0.692182
0.10236
0.116228
0.328841
-0.0431022
0.181245
0.0052312
0.161941
-0.190017
-0.220982
-0.391359
0.308738
0.29745
0.00925957
-0.269151
-0.123122
0.0640273
0.000478897
0.143206
0.338748
0.0805198
-0.0696857
0.255222
-0.0250079
0.0884931
-0.058719
-0.20639
0.324492
0.272082
-0.0540148
0.286
-0.243475
0.193626
0.116315
-0.0454931
-0.01871
0.137579
-0.134237
-0.480293
0.0366037
0.15594
0.307414
0.103885
-0.414821
0.385181
-0.027482
-0.0128787
0.173858
-0.00713174
0.106016
0.134348
-0.506251
0.237856
-0.228479
0.13887
0.458378
0.103736
0.0738258
0.289811
0.0525487
-0.169708
0.101004
0.178492
0.281332
-0.113187
-0.0129497
0.229912
0.292608
0.243532
-0.0334182
-0.18935
0.00634997
-0.0227158
-0.105829
-0.0443395
-0.0506453
0.0138028
0.271622
0.32617
-0.00546929
0.112784
0.263901
-0.258152
0.143721
-0.327776
0.219795
-0.230779
0.0351505
0.11764
0.0556461
0.0595847
0.247721
0.17486
0.0385836
0.0796934
0.106124
-0.229383
0.214378
-0.0732182
-0.0203213
0.00485264
0.234737
-0.10186
0.151855
-0.152385
-0.0834679
0.027192
0.0257511
0.0137726
-0.225283
0.182572
0.0169108
0.30186
-0.201705
-0.054752
0.359532
0.12007
0.126988
-0.237938
-0.013496
-0.0951896
-0.0348671
-0.117521
-0.246173
0.0159045
-0.205846
0.140517
-0.136116
-0.241465
-0.11179
0.101072
0.0962644
-0.227012
-0.0714589
0.0217832
-0.0570512
0.260966
0.182093
-0.0325462
-0.0044402
-0.0709428
0.112969
-0.173438
0.0692021
0.0783736
-0.102846
0.411748
-0.194173
-0.015895
0.299833
-0.331565
0.146986
0.0797189
-0.159834
-0.163968
-0.175848
0.132224
0.274908
0.041517
0.182386
-0.25762
-0.141566
-0.0296477
-0.163765
0.288371
0.142988
-0.205449
-0.122248
0.03784
-0.120966
0.357418
0.0936013
0.300502
-0.190859
-0.0922752
0.188692
0.0166696
0.320452
-0.195901
0.019356
-0.174604
-0.068815
-0.118764
-0.0632182
0.2408
0.0725922
0.0393577
0.158278
-0.0897936
0.233871
-0.0972824
-0.0590506
0.00306782
-0.0193626
0.0512644
-0.158769
-0.196399
0.308414
-0.0452766
-0.23916
0.154088
-0.0677279
0.178281
-0.0878349
0.11646
0.207123
-0.301633
-0.507344
-0.00627634
0.139707
0.520882
0.17508
0.119554
0.084157
0.216851
-0.209627
-0.169182
-0.0620931
-0.100231
0.279546
-0.0449308
-0.0173769
-0.264569
0.14837
-0.356574
-0.0765522
0.0438769
-0.00380595
0.123835
0.164263
-0.314674
0.367253
-0.271245
0.181625
-0.223233
0.000547742
-0.150303
-0.223516
-0.01882
-0.207257
0.13181
0.165971
-0.0319779
-0.060371
0.0568791
0.362475
-0.21986
-0.125677
-0.258586
-0.114905
0.134269
0.0980811
-0.178566
0.115371
0.138014
-0.109637
-0.196238
0.119724
0.192538
-0.294779
0.0997098
0.0236072
0.0267846
0.516419
-0.328632
-0.189889
-0.0501144
0.269502
0.0777638
-0.112626
-0.176705
0.108704
-0.026774
-0.106087
-0.235958
-0.334004
0.331642
0.139624
0.0209853
-0.0764158
0.0881708
0.205671
0.0374346
0.00880197
0.0474844
-0.0241335
0.0609805
0.0455737
0.43105
-0.301983
-0.0513426
0.0640122
-0.173187
0.0222527
-0.305479
-0.000806679
-0.0925049
-0.166336
-0.135947
0.0924242
0.184029
-0.0746564
-0.286082
-0.00768232
-0.211066
0.462395
-0.209916
0.212822
-0.0142485
0.0374851
-0.000197437
-0.0869972
-0.0411126
-0.0246693
-0.190038
-0.116324
-0.143737
-0.33501
-0.340227
-0.199455
-0.0301143
0.0678654
-0.081292
-0.18811
0.145832
0.0962917
-0.13731
-0.204105
-0.243068
-0.0454571
0.0744597
0.058114
-0.070956
0.261502
-0.174561
0.500647
0.282354
0.22436
-0.164716
0.282419
-0.196551
0.17415
-0.0874305
-0.0108424
0.309372
-0.218528
0.180652
-0.058874
-0.150581
0.0589653
-0.0102309
0.209316
0.0287735
-0.114297
0.0738679
-0.0393402
-0.0329951
-0.253619
-0.38761
0.193376
0.0676745
0.0274019
-0.0447439
0.102492
-0.0222797
-0.180245
-0.00516413
-0.0751065
0.10434
0.160933
0.154902
-0.103421
-0.0918499
0.388954
0.148681
0.126077
0.143619
0.301645
-0.0499808
0.25735
0.272406
-0.00681772
0.021515
-0.277667
-0.0171444
-0.351329
-0.242028
0.15317
-0.21297
0.114469
-0.248617
0.0752841
-0.21139
-0.429589
0.0711649
-0.238766
-0.0615487
-0.177885
-0.446612
-0.0465336
0.148412
-0.148418
0.0803723
-0.185814
-0.243148
0.568158
0.124674
0.0235395
-0.0355772
0.0877697
0.201214
0.233347
-0.162438
0.0720699
-0.0610587
-0.203796
0.134852
0.0221223
0.285806
0.0386462
-0.254417
0.125763
-0.0366068
-0.363177
-0.212854
0.319094
0.00598386
0.289425
0.092038
-0.109256
-0.300063
-0.0555988
0.158073
0.170921
-0.00872624
-0.168403
-0.138851
0.100356
0.0490793
-0.171918
0.153729
-0.0254586
-0.147687
0.269475
0.134394
0.243582
-0.237764
0.267164
-0.474139
-0.0392853
0.142257
-0.133228
0.248951
0.312012
0.321356
0.228191
0.211726
-0.190866
-0.17703
-0.0547164
0.251053
0.339864
-0.0450613
0.0728131
0.0446512
0.0864527
-0.16624
0.183744
-0.284607
0.0994176
-0.341803
-0.180164
0.277436
-0.308209
0.129648
-0.082122
0.0445431
0.017734
0.307422
-0.292132
0.136923
0.138327
0.0986727
-0.0468577
-0.0762692
-0.00352729
0.209466
-0.335748
0.0338153
-0.095244
-0.0509349
-0.133731
0.32652
0.0673924
0.0725385
0.1217
0.0118477
0.0948857
-0.0714144
0.121802
-0.0646953
-0.116372
-0.0510645
0.342556
0.173032
0.0832503
-0.0866815
0.0388314
0.00667791
-0.181767
-0.368343
-0.0422847
-0.296858
0.0860642
0.0837454
0.0765127
-0.0925601
0.17794
0.179586
-0.211252
0.0433232
0.0847099
-0.102633
0.222497
-0.147853
-0.148695
0.267288
0.0252219
0.0191822
-0.0930461
-0.23083
0.0508618
-0.479504
-0.0251363
-0.147365
-0.0461961
-0.0890239
-0.128496
0.130247
-0.125191
0.00325415
-0.0211811
-0.0500948
-0.2511
0.0730316
-0.233474
0.210146
-0.0311688
-0.0105052
-0.0132895
-0.0830131
-0.0873433
0.329774
0.124448
-0.2091
0.0628111
-0.0657243
-0.0663769
-0.00200046
-0.231608
0.4341
0.0972152
0.141361
-0.181488
-0.212052
0.0526715
0.146099
-0.038069
0.125102
-0.272602
0.275452
0.278831
0.0863645
-0.00312529
0.123351
0.122337
0.309097
0.0961201
0.0694326
-0.0791741
-0.135284
-0.0896817
0.172899
0.0242688
0.246351
-0.134013
-0.0631097
0.581431
0.121261
0.131725
0.184046
-0.0224304
0.0194031
-0.190502
0.147465
-0.130502
-0.204263
-0.0274051
0.0966922
0.241626
-0.139588
0.160145
0.259679
0.0422605
0.0221826
-0.108625
-0.173301
-0.0156129
0.257598
0.093851
0.0507863
-0.010728
-0.397625
-0.214896
0.403207
-0.261586
0.232326
0.234867
-0.03856
0.000344354
-0.0963606
-0.273351
-0.173478
-0.349608
-0.280654
0.040255
-0.328081
0.268658
0.173538
0.0535714
-0.015121
-0.0324872
0.0296531
0.301622
-0.31379
0.133145
0.25265
0.126941
-0.235293
-0.142229
0.0346568
-0.219119
-0.295427
0.401225
0.0289519
0.13008
0.0927559
0.0906444
-0.0489166
-0.347009
0.477586
0.149895
0.434714
-0.120527
-0.101716
-0.19279
-0.235671
0.239056
0.125715
0.218445
-0.148156
0.1597
-0.346395
0.248285
0.0480567
0.230457
-0.0559983
0.117538
-0.180724
0.322965
0.049662
-0.130566
-0.325361
0.109666
0.120382
0.0305382
-0.18106
0.114971
-0.0392315
-0.177945
-0.0609783
-0.0519674
-0.34511
0.0896462
-0.116166
-0.0013277
0.191899
-0.161257
-0.13372
0.0379126
-0.445903
-0.185856
-0.4027
0.0940312
0.073271
-0.0101961
-0.0518511
-0.333389
-0.0822792
0.17508
-0.152532
-0.0354692
0.149211
0.0549636
0.577694
0.153851
0.0302159
0.0132126
-0.174668
-0.26017
0.106181
-0.194886
0.273555
0.199837
0.31187
-0.414507
0.179332
-0.131413
-0.0603352
0.140614
-0.168755
0.394004
-0.158635
-0.170064
0.168375
-0.00479047
0.417742
-0.015218
0.0693309
0.0225766
0.21637
-0.105779
0.13016
0.128462
-0.202146
-0.0473901
0.109422
-0.0721163
0.0380513
-0.0558412
0.221433
-0.186431
0.288653
-0.140198
0.191656
-0.11053
-0.138309
-0.389503
0.155823
-0.425413
0.195616
-0.104343
-0.107616
0.389752
-0.125538
0.0180347
0.282348
-0.134379
-0.0452438
0.396711
-0.0667579
0.137473
0.221352
0.00577496
-0.29693
0.112148
0.0818945
0.292578
0.0210525
-0.0968947
-0.025561
0.102151
-0.0231405
-0.134121
-0.121703
-0.0231666
-0.100609
-0.0340088
-0.210691
-0.153074
0.338787
-0.360034
0.210083
0.177394
0.211418
-0.154748
0.0698645
0.126862
-0.205828
0.0840275
-0.0633604
-0.00141859
-0.0278153
-0.11716
0.43217
-0.102382
-0.133162
-0.465482
-0.165716
0.0323873
-0.157416
-0.0753266
-0.252953
-0.0813854
0.289552
0.00731
-0.289853
0.204423
-0.159325
0.0785623
-0.273886
-0.0724394
0.0858853
-0.0690273
0.211591
-0.0221718
-0.290135
0.0537668
-0.0663115
-0.380118
0.182013
0.0305614
0.0886793
0.248923
0.119133
0.216839
-0.0496592
-0.159897
-0.177978
0.130442
0.20151
-0.0618003
0.0380491
-0.0153462
0.238496
-0.271238
0.129486
-0.318959
-0.200343
0.0940759
0.0721576
-0.0367953
0.128993
-0.0936399
-0.0746139
-0.0338293
-0.102969
-0.232326
-0.0687409
-0.101665
-0.342608
-0.114553
0.0818309
0.285717
-0.0964485
0.138159
0.125339
0.226916
-0.0298114
-0.0978088
0.0676021
0.0338434
0.336037
0.186367
0.287421
-0.198724
0.0665723
-0.361543
-0.0743954
0.218047
0.0777245
0.226329
0.269581
0.000861686
0.383233
-0.068696
0.101197
-0.164619
-0.0494034
-0.0940877
0.215064
-0.36723
-0.176666
0.301884
0.177401
-0.00646327
-0.227351
-0.32587
-0.206587
-0.195225
-0.17781
0.146299
-0.117757
-0.195331
0.0641726
0.342238
0.104834
-0.0511746
-0.167961
0.18278
0.0450425
-0.307755
0.0446817
-0.252655
-0.0070398
-0.080719
-0.360662
0.175143
-0.208849
-0.0203958
0.182371
0.30559
-0.0039233
0.245272
-0.0111595
-0.018637
-0.168158
-0.139184
0.266416
-0.0347175
0.120573
-0.359848
-0.331511
0.0439231
0.305554
0.0770932
0.0570475
0.0665727
-0.316867
-0.216854
0.152392
0.0255642
-0.241755
-0.171756
-0.0307052
0.334227
0.129513
0.331554
-0.0118276
-0.0920437
-0.0471159
-0.290753
0.262936
-0.0423776
0.32154
0.163806
-0.1208
0.168043
-0.229407
0.405342
0.164801
0.13666
-0.145671
0.104417
0.0409448
0.0856984
0.024635
0.0914059
0.125074
0.197158
-0.00321576
-0.153439
0.351223
0.230993
-0.215423
-0.129589
-0.0733532
0.144319
-0.152402
-0.0189595
-0.0351821
0.0486826
0.0876497
-0.0913609
0.253058
0.416736
0.0481368
0.0888664
-0.108411
-0.118968
-0.0227788
0.307582
0.258497
0.0553405
0.073896
0.271732
-0.0695327
-0.0723977
0.115985
0.0940944
-0.130804
-0.107411
-0.0553519
-0.0972433
-0.145069
-0.0788072
-0.0361242
-0.396713
-0.125349
0.208511
0.334098
-0.0779846
0.316799
-0.118866
0.0642219
-0.00949029
-0.0445242
-0.206563
-0.161645
0.181746
-0.0728232
0.328753
0.000559965
0.191575
-0.063485
0.376256
0.153719
0.0411234
0.523922
-0.108775
0.160319
-0.135264
0.00543393
-0.282579
-0.190124
0.0112923
0.215837
-0.403785
0.00556761
0.135055
-0.115673
0.116758
0.362339
-0.00171809
-0.0330438
-0.273366
0.337625
0.0993048
0.116268
0.405838
0.130435
-0.32956
0.202642
0.0733805
-0.237858
-0.281138
0.13675
-0.0223347
0.0444554
0.0690745
-0.0413744
-0.0746704
0.0871052
-0.0844325
0.415459
0.0895968
-0.284983
0.0762807
-0.0936194
0.234017
-0.00835204
-0.121244
-0.117256
0.219965
0.0275014
0.293759
0.346379
0.10581
-0.0113053
-0.0273101
-0.0999591
0.119604
0.374892
-0.148691
-0.0913829
-0.264625
0.286846
0.260396
0.0938701
0.277903
-0.0603386
0.0122029
0.087031
0.154031
0.0172483
-0.183087
-0.105369
-0.314821
0.16522
0.283445
-0.127259
0.083502
0.0139282
0.281469
0.0048956
-0.335079
0.00736616
-0.356591
-0.0665096
0.308869
-0.0884374
-0.273229
0.0605953
0.444819
0.0427212
0.109263
0.176048
-0.184802
-0.430697
-0.164372
-0.0220965
-0.00907264
0.11413
-0.0795996
0.00801787
0.0169681
-0.129052
-0.229235
-0.0675828
0.284655
0.13666
0.15584
0.073098
0.196718
-0.154252
-0.161117
0.177237
0.0586532
0.181829
0.11411
-0.245057
-0.119325
-0.116232
-0.154158
-0.0646073
-0.0577439
0.0163332
0.0782037
0.0991893
0.239759
-0.0229347
0.00407882
-0.342762
0.240682
-0.314235
-0.0660401
-0.135401
-0.349047
0.101422
-0.0217921
0.295331
-0.0785084
0.13471
-0.054117
-0.114198
0.0848189
0.10979
-0.0331615
0.0175567
-0.110692
-0.306055
0.0241549
0.0778584
0.167926
-0.0889377
0.138446
0.129627
0.00686904
-0.317956
-0.0792494
0.0818543
-0.243181
-0.0125788
-0.383933
-0.0382526
0.00813994
-0.195663
0.101382
0.17732
0.177132
-0.0629117
-0.298393
-0.0174128
0.488727
-0.190769
-0.220017
-0.297255
0.0573801
0.143911
0.139015
-0.256937
-0.329615
0.105821
0.0347493
-0.162883
-0.166599
-0.0970154
0.0450028
0.320061
0.0751468
-0.111919
0.0926171
-0.0836425
0.139117
0.0769661
-0.367505
-0.308848
0.105792
0.132995
0.241898
0.0872532
0.12804
0.180586
0.278447
0.166326
-0.363966
-0.0179691
0.0533862
0.421258
0.106471
-0.0264787
0.290806
0.000982669
0.0570354
0.0399038
-0.125468
0.0713045
-0.155852
0.0589507
-0.268023
-0.0485192
0.105784
-0.0321683
-0.135421
-0.199648
0.170576
0.133202
0.0616909
0.0558487
-0.0190588
-0.255812
-0.227345
-0.136519
0.0294491
-0.480309
-0.251074
0.418602
0.23098
-0.620677
0.485708
0.101105
-0.153411
-0.00854739
0.141205
-0.116586
0.331168
0.0589223
-0.0366887
0.302966
0.196135
0.197588
0.141792
-0.130161
-0.105461
0.124311
0.238449
0.0147406
0.0956382
-0.0375839
-0.212204
-0.0022506
0.0168695
0.0365974
-0.107314
0.263495
-0.00547618
0.163571
0.0534412
-0.258075
-0.199694
-0.205454
0.0696321
0.208514
-0.105108
-0.0402935
0.164857
0.0976277
0.0238507
0.0427455
0.0537218
-0.13288
-0.318542
0.0500727
0.394003
0.0499427
0.235952
-0.0169808
-0.490301
0.113914
0.141553
-0.0755189
0.0696061
0.165178
-0.0611438
0.0159749
0.233361
0.242839
0.0412393
0.356059
-0.0604044
0.0486645
-0.47028
0.0540851
-0.10083
-0.306995
0.228638
-0.326252
-0.128364
0.0818221
-0.154346
-0.414935
-0.324199
0.152961
-0.0434555
0.0367771
-0.0850931
0.0950704
-0.179304
0.319274
-0.209203
-0.0836279
0.0392074
0.046882
0.262708
-0.149304
0.196802
0.171135
0.102171
-0.230911
-0.132109
-0.0783544
0.0497556
-0.220667
0.115527
0.22811
0.0280244
0.061846
0.227415
-0.0115159
-0.296178
-0.108293
0.313768
0.0813915
-0.0623812
-0.0212387
-0.0845623
0.118208
-0.271445
0.260243
-0.200262
-0.230989
-0.141996
0.232167
-0.0275084
0.207029
0.218495
-0.197882
-0.0975963
-0.0114358
-0.219273
0.487925
-0.456795
0.312022
-0.125802
0.223904
-0.109815
0.24074
-0.118593
0.166051
-0.0334994
-0.274269
-0.110922
0.0149377
0.436282
-0.00913293
0.233386
0.0335668
-0.181043
-0.0629688
-0.300422
-0.206222
-0.0898599
0.176627
-0.137943
0.306695
0.0797949
0.377784
0.141117
0.315791
-0.0710517
0.0440174
0.154343
0.161802
0.086359
0.039024
0.218077
0.211815
-0.0284812
0.0420791
-0.00359195
0.290551
0.145632
0.185492
0.104331
0.0602653
0.287418
0.024417
0.144249
0.3537
-0.0260948
0.167037
0.1357
0.0712459
-0.252745
0.0863234
0.318052
0.361378
-0.224036
0.00194889
0.106793
-0.117915
0.245168
0.544304
0.0084708
-0.214153
0.0233275
0.0330003
-0.180644
0.00344778
0.224121
0.36069
-0.182149
-0.256285
-0.164296
-0.178766
0.153421
0.222655
-0.0561646
-0.12423
-0.00666911
0.419703
0.177163
0.213475
-0.0104023
-0.562678
-0.177828
-0.0571863
-0.313632
0.0333116
0.116859
-0.0965689
-0.0838334
-0.299506
0.206138
-0.168438
-0.138214
-0.0257484
-0.107637
0.0503157
0.299875
-0.370815
-0.074258
0.402737
-0.0345427
-0.0844302
0.17021
-0.0849256
-0.125612
-0.289763
0.361419
-0.269597
-0.312358
-0.189007
0.288386
0.561628
0.100505
-0.0416519
0.0814159
0.15858
0.350144
0.150533
0.319174
-0.0246105
-0.122703
-0.136831
0.331804
-0.0299325
-0.268873
-0.186431
0.0237959
0.106915
0.406696
-0.12217
-0.120705
0.159739
-0.249929
0.151624
0.221704
0.153083
0.217986
0.0598666
0.164787
0.0506215
0.0893916
0.0900273
0.445272
-0.197439
0.138774
0.399935
-0.0932471
0.0961132
0.0262776
0.191308
-0.171409
0.107614
0.398492
-0.316521
0.462893
-0.193062
-0.0521325
0.105415
0.0372115
0.250003
-0.108908
-0.137142
-0.197474
0.278059
-0.0686103
0.213115
-0.358442
0.0207837
-0.0782723
-0.0175706
-0.0291712
-0.0159129
-0.0395104
0.241076
0.126867
0.0526941
0.0574538
0.195637
-0.0615137
0.252621
0.0891526
0.324029
-0.0379564
0.204596
0.0786185
-0.313909
0.0764741
-0.199515
0.109127
0.334242
0.0724154
-0.11083
0.130893
0.0249222
-0.133609
-0.0594119
3.64612e-05
-0.346239
0.0919878
-0.129346
-0.131445
-0.00178288
-0.43909
0.139256
-0.107125
0.25033
0.027088
-0.131043
-0.0222278
-0.0450346
-0.0925181
-0.247146
-0.289891
0.0996611
-0.149814
-0.109776
-0.199205
-0.140673
-0.239982
0.197362
-0.406806
-0.116923
0.0924449
0.185996
0.0861473
-0.221682
-0.258538
0.0647082
0.104634
-0.0898662
0.0608784
0.0995751
-0.0969379
-0.0182469
0.0194446
0.0259674
-0.0518825
-0.171253
0.0194296
0.000490431
0.0517725
0.161805
-0.0978518
0.282255
0.20165
-0.0568772
-0.0502485
-0.211583
-0.0525433
-0.278992
-0.278627
0.190498
-0.215188
0.0397053
0.0737998
-0.044791
0.209574
-0.155619
-0.334812
0.20072
-0.0244715
0.131041
0.11019
-0.115529
-0.0576766
0.0966229
0.155894
0.291864
-0.0763012
-0.0133767
0.103696
0.142272
0.102721
0.124134
0.087227
-0.120503
0.20583
-0.328843
0.168982
0.319747
-0.0443703
-0.0452335
-0.127652
0.215114
-0.140329
0.103064
0.0273075
-0.32705
-0.159479
0.134783
0.0319571
0.391652
-0.350147
0.119642
0.0358664
0.169447
-0.00714603
0.191368
-0.00671925
0.127468
-0.112111
0.279491
0.181599
0.0824255
0.0654748
-0.159018
0.414322
-0.0850842
-0.379604
-0.276112
-0.035162
-0.0938816
-0.177942
-0.124643
-0.025642
0.0900198
0.139011
0.0116331
-0.048378
-0.021528
-0.219396
0.127371
0.333152
-0.0126306
0.455305
0.156602
-0.200968
0.019542
0.0349043
-0.033073
0.287508
0.0623886
-0.331622
0.0937847
-0.165951
-0.00499021
0.119
-0.076337
0.0934932
-0.114174
0.0366674
-0.146406
-0.228059
0.0292301
-0.085247
-0.283245
-0.373956
0.0500821
-0.134122
0.298928
0.105995
-0.222849
-0.341052
-0.104237
-0.0397762
-0.272834
0.0964583
-0.184311
-0.0239534
-0.0740218
0.198859
-0.144947
-0.380352
-0.415924
0.056414
0.347612
0.10202
-0.0771053
-0.000731497
0.190586
0.0592582
0.165377
-0.256865
-0.118775
-0.340443
-0.11269
-0.54139
-0.0973134
0.299743
0.0669754
0.121184
-0.530248
-0.0792598
0.227661
-0.404994
-0.08193
-0.0704554
0.41829
-0.309989
0.136213
0.0837325
0.0829269
0.229013
0.140032
-0.247936
0.264683
0.168407
-0.321504
-0.303822
0.0920848
0.230097
-0.200267
0.0488509
0.391945
0.123231
-0.0697698
0.129768
-0.289941
0.133122
0.0961594
-0.242823
-0.047906
-0.0390656
0.116007
0.0452804
0.241409
0.177434
-0.147951
-0.11583
0.107466
0.036632
-0.299092
-0.0031181
-0.102992
0.108915
-0.243989
0.242929
-0.138941
0.0567607
0.131019
-0.0354999
0.112704
-0.0679972
-0.128152
-0.284343
-0.0329403
0.243122
0.113271
0.0682076
0.0273927
0.097081
-0.166069
0.0618894
0.0891577
0.129058
-0.234557
0.293097
0.0521344
0.258752
-0.235592
0.12273
0.0497557
0.0981011
0.00495654
0.0095528
-0.0321158
-0.0341964
0.151256
-0.102676
-0.22009
0.11622
0.0558946
0.00653833
0.0991066
0.218951
-0.264886
-0.0512202
-0.0767614
-0.0263554
0.143338
-0.213481
-0.197788
0.288099
-0.128991
0.178515
-0.0804309
0.121
0.0738143
-0.0839273
-0.0501843
0.237206
0.308765
0.317573
0.233356
-0.0270415
0.0425877
-0.0941251
0.0235658
-0.00251842
-0.122069
0.244743
0.140888
0.0558463
-0.105295
-0.171346
0.254053
0.0772211
-0.0644639
0.403145
-0.0524464
0.20843
-0.182487
-0.176193
0.0874837
-0.0115637
0.00319424
0.167098
-0.0158735
-0.139546
-0.0167986
0.120494
0.232913
-0.114848
0.0853015
0.518544
0.0721025
-0.240367
0.287808
-0.142478
0.217482
-0.00519063
0.111328
-0.228132
0.00346563
0.355287
0.450766
-0.191978
-0.057015
0.412641
-0.173215
0.0751654
-0.0219154
-0.32538
0.200304
0.161732
0.0738735
-0.156207
-0.116035
-0.0691721
0.0885219
-0.0831282
-0.225186
0.0497417
0.0164727
0.0998253
-0.100848
-0.032327
-0.163111
-0.040169
-0.0607365
-0.0239475
0.126387
0.173805
-0.0888089
0.246953
-0.126253
-0.00626618
-0.150065
-0.00501652
0.337052
0.24662
-0.0832566
0.0217063
0.00287776
-0.136191
-0.194532
-0.0935945
-0.108754
-0.214227
0.235053
-0.519584
0.189684
0.0662243
-0.0424278
0.0750671
0.0991197
0.0477591
-0.151503
-0.402925
-0.0259329
0.220279
0.0129106
0.0641076
0.155275
-0.00437752
0.110918
0.205932
0.0841543
-0.0572755
0.0358478
0.26654
0.0674284
0.059812
-0.0572449
0.217342
0.197808
-0.171553
0.163426
-0.113825
0.14515
0.0547061
-0.251293
0.10547
-0.0443746
0.110688
-0.167651
0.116084
-0.182645
0.320996
-0.277897
-0.342413
-0.348282
-0.409195
-0.0417059
-0.314583
-0.033081
0.194897
0.249771
-0.165686
-0.203462
-0.399703
0.00871132
-0.0721964
-0.124357
0.216206
0.059717
-0.137891
0.300132
-0.222622
-0.0835275
0.127483
0.0950397
0.191445
0.0405322
-0.24786
-0.0100018
0.12477
-0.0335003
0.0107961
0.0532584
-0.278914
-0.0546405
0.13989
0.0865701
-0.0864064
-0.177274
0.329388
-0.0924907
0.353693
0.00643906
0.0923742
0.0648566
-0.156598
0.154983
-0.0585421
0.474638
0.494235
0.0424126
-0.101626
-0.156151
0.0988275
-0.231586
0.207447
0.275884
0.111093
0.0575616
-0.072484
-0.310362
0.128446
-0.0103294
0.172541
0.0653127
0.0489454
-0.24156
-0.146449
-0.0339736
-0.0495463
-0.225308
0.0313586
0.0716553
0.389365
-0.0561999
-0.326369
-0.0678073
0.122231
-0.3524
0.104733
0.176002
-0.0757393
0.042666
0.184345
0.0138011
0.214867
-0.123793
-0.0428199
-0.103208
0.0867885
-0.447016
0.108786
0.0385304
0.264234
0.373205
-0.204479
-0.0896478
-0.173934
-0.0203857
0.406831
-0.278026
-0.334785
-0.0260018
0.192425
-0.0256688
-0.207014
0.178332
-0.0201892
0.236668
-0.236194
-0.198324
-0.152704
-0.214369
-0.117013
0.298861
-0.148414
-0.033771
-0.457231
0.132497
-0.188839
0.153112
0.369751
0.127959
-0.0481966
-0.0567641
-0.0203769
-0.166102
-0.0840562
0.289
0.04352
0.127023
-0.129719
0.377885
-0.405613
-0.0326265
0.142415
0.112147
-0.0326864
-0.0838153
0.294949
-0.14365
0.139034
0.128747
-0.0529291
0.123339
-0.272798
-0.245567
0.22709
-0.162827
0.191361
0.0979166
-0.127382
0.176308
0.335767
0.046307
-0.219536
-0.00308312
-0.00760257
-0.155118
0.436574
-0.0874908
0.144406
-0.304451
0.0825604
-0.166441
-0.0427042
0.0133893
-0.0664979
-0.0901782
0.0279256
-0.0036748
-0.284009
-0.144175
0.195358
-0.0785465
0.0152126
0.120472
0.141507
0.285558
0.090262
-0.00216843
-0.0495775
-0.1192
-0.155184
0.119127
-0.0298271
0.194625
-0.00800091
0.0690242
0.0215574
-0.136012
-0.00715844
0.318167
0.347648
-0.267431
0.0521285
-0.371428
0.00251815
-0.0227891
0.0527333
-0.238786
0.0740161
-0.34645
-0.0689989
-0.275473
0.107771
0.0554107
-0.121178
0.131987
0.258185
-0.0412912
0.0595906
0.10896
-0.324199
-0.135494
0.364485
-0.0186586
0.102794
0.0968121
0.0503494
0.0194738
-0.139665
-0.144302
-0.368532
-0.210382
0.243168
-0.201965
0.136009
-0.0834557
0.00150521
-0.0391545
-0.238798
-0.00128011
-0.0569304
0.0483898
-0.325317
0.205906
0.0855149
-0.069992
-0.136897
-0.167842
-0.341299
0.0301669
0.326708
0.207289
-0.0395394
0.366177
0.161475
-0.394965
0.0217816
-0.115189
-0.10017
0.138144
-0.199109
0.0234726
-0.146172
0.0399414
0.156356
0.203093
-0.147567
-0.188977
0.0753946
0.110387
-0.312176
0.0165999
9.23379e-05
0.0648194
-0.0743013
0.071719
0.0979028
-0.0884613
-0.0988817
0.229337
0.11974
-0.132883
-0.110398
0.488933
0.166979
0.0989412
0.182678
0.124152
0.0142153
-0.000254439
-0.142595
-0.0422401
0.104329
-0.255969
-0.159321
-0.184924
-0.276299
-0.11948
0.0668351
0.00817085
0.023236
-0.251367
-0.0158077
0.161402
-0.220383
-0.014569
0.0583757
0.156816
-0.0889777
0.110504
0.105444
0.241798
-0.057567
-0.0147731
0.322307
-0.13053
0.199164
-0.0489774
-0.164776
0.0844332
-0.387852
0.133927
0.17007
0.0252612
-0.14096
0.0714194
0.105304
0.0275994
-0.112153
-0.0470483
-0.0277565
0.211115
-0.154049
-0.230668
0.302577
0.204492
-0.0282933
-0.276761
-0.120695
-0.409168
-0.0866804
-0.0979861
0.0910433
0.143337
0.152779
0.400143
-0.0961988
-0.00734131
-0.0674617
-0.00665512
-0.167446
0.472165
0.190541
0.0973462
0.151016
0.088853
-0.0155243
0.0591135
0.125965
0.0268913
-0.0787729
-0.236011
0.0504998
0.0362859
-0.0482738
-0.0952167
0.00502676
0.388157
0.134165
-0.115521
-0.063681
0.057974
-0.215655
-0.00246818
0.00732252
-0.0194015
-0.108745
0.0113605
-0.228476
0.0615818
0.175654
0.0515965
0.0975551
0.0165388
0.0880745
0.4258
-0.0635285
0.170307
-0.273774
0.190088
0.0322924
-0.260148
-0.16489
0.134924
-0.0195422
-0.091924
-0.112973
0.0263246
-0.576251
0.142801
-0.0328322
0.266848
-0.0380316
-0.125481
0.0716394
0.106314
-0.0319711
-0.301586
-0.123797
-0.0376058
0.210968
0.0861944
-0.184414
0.0926907
0.0390401
-0.137063
-0.271323
-0.213472
0.361624
0.158791
-0.0845432
-0.196066
0.171356
0.147193
-0.122101
0.0932353
-0.156091
-0.102104
0.25668
-0.173754
0.164313
0.149907
0.0116005
-0.153424
0.00802702
0.190024
-0.0131494
-0.0338135
0.0506997
-0.0158064
-0.026598
0.111718
-0.191686
-0.144863
-0.156049
0.269658
-0.0907077
-0.0596736
0.11522
0.222106
0.101546
0.0223939
-0.226889
-0.0386572
-0.245328
0.215211
0.00528915
0.199509
-0.224106
0.121855
0.119646
-0.15602
-0.0151651
-0.211385
-0.00923536
0.103337
-0.0178798
-0.111133
-0.495813
-0.264454
-0.0256662
0.195219
0.0613256
-0.0457976
0.0734387
0.152598
0.220138
-0.0381243
-0.108304
-0.000800718
0.148334
-0.196738
-0.0838019
-0.21687
-0.0113033
-0.0763259
0.150534
0.136861
-0.417775
-0.106443
-0.201567
-0.627832
-0.15857
0.20656
-0.124571
-0.187339
-0.142366
0.0528611
0.165555
-0.0876184
-0.504194
-0.0375786
0.231683
-0.00334655
0.315039
0.16601
-0.0774344
-0.0347669
-0.354374
0.130031
-0.142215
0.18407
-0.0171615
-0.0639399
0.1674
0.253021
-0.0412117
0.272242
0.0357495
-0.173652
0.354693
0.00577007
0.0435198
0.280927
-0.118843
-0.234414
-0.00849967
0.0142718
-0.144033
0.214567
-0.119997
0.114306
-0.297349
0.0512009
-0.157782
-0.330425
0.145849
0.0748075
0.3659
0.301486
0.166374
-0.00919704
0.0198104
0.202379
0.123837
0.141994
-0.255035
-0.0288671
-0.102792
0.143892
-0.445299
0.124591
0.00945214
-0.109279
0.349108
0.0588738
-0.0893579
-0.308517
-0.129374
0.341387
0.111869
-0.167196
-0.147496
-0.000911441
0.153332
-0.0550389
-0.0127115
0.102149
-0.130445
0.328899
-0.018855
0.185545
0.0415747
-0.185725
0.153736
-0.0378766
-0.0340743
0.0809391
0.155782
-0.20672
-0.0931056
0.0186614
-0.462755
-0.0345931
0.19537
-0.0474025
0.33854
-0.0165437
-0.00575476
0.543053
0.0930346
-0.0177483
0.295009
-0.218301
-0.136795
-0.357129
0.0139388
0.0864792
-0.165197
-0.0713153
0.0269253
-0.0608057
0.0287414
-0.0370694
-0.000602809
0.0722178
0.0543536
-0.0894407
-0.00834141
0.16993
-0.185429
-0.0954534
-0.22156
0.0833779
-0.203512
-0.0148117
-0.0835334
-0.484
-0.0295228
-0.226072
0.0873067
0.0889551
-0.2532
-0.13435
0.204432
0.421437
-0.22375
-0.0145068
0.134155
-0.31947
0.153021
-0.0651079
0.180985
0.288792
0.00661483
0.30481
0.152626
-0.00459807
0.126033
-0.0372913
0.253983
-0.236868
0.147382
-0.158392
0.178595
0.165787
0.418003
0.11148
-0.0691484
0.0914941
0.176834
0.104448
-0.569332
0.123788
0.10281
-0.0481414
0.0606028
-0.007372
-0.176138
0.0105797
-0.440091
-0.108651
0.0986005
-0.0597971
-0.0451794
-0.086776
-0.125199
-0.431969
0.225495
0.190525
0.1307
0.0945673
-0.054968
0.177663
-0.208986
-0.128765
0.136607
-0.0873402
-0.248396
-0.124268
0.249786
-0.25132
-0.176006
0.371244
-0.168766
0.302677
0.276459
-0.212723
0.258781
-0.17093
-0.225926
-0.248287
0.245703
0.450437
0.0512967
0.131909
-0.0906183
-0.0830302
-0.271116
0.142474
-0.345927
-0.0547821
-0.0273062
0.387505
-0.145031
-0.388238
0.045379
0.092144
0.175955
0.348326
-0.0314121
-0.223606
0.051046
0.401009
0.0534645
0.00177831
-0.316717
0.39822
-0.0463676
0.00937623
0.231027
0.141521
0.0242571
0.0909954
-0.18016
0.30059
-0.168162
-0.194592
0.0603374
-0.0472368
0.11304
-0.184982
0.200668
0.161919
0.217793
0.113468
-0.176362
-0.0579671
0.078706
-0.0137724
-0.193865
0.177335
-0.306256
0.0536724
0.109352
-0.0263017
-0.121164
-0.26462
-0.199109
0.19165
-0.132337
-0.0626443
-0.190124
0.0312188
0.162303
-0.286934
0.117809
-0.156923
0.0385724
-0.2044
0.080147
-0.128628
0.0535803
0.156213
0.132227
0.123563
-0.044302
-0.190838
-0.034534
0.318537
0.0611563
-0.131501
-0.332151
0.0696686
0.0706148
-0.281693
0.190374
0.266135
-0.0970845
-0.206578
-0.0322861
0.420412
-0.0771274
-0.458055
-0.00453612
-0.0558504
-0.114363
-0.277755
-0.0125395
-0.0182993
-0.0188841
-0.00523203
-0.00967114
-0.02065
-0.0240647
-0.00687856
-4.08314e-05
-0.0179132
-0.0136116
-0.00897396
-0.00565156
-0.00950603
-0.00659262
-0.00900023
-0.00438221
-0.0147381
-0.0162432
-0.0207929
-0.00648204
-0.0133002
-0.0185593
-0.0148945
-0.00959151
-0.0254912
-0.0135035
-0.019297
-0.0120963
-0.00870773
-0.0123552
-0.0359999
-0.0191137
-0.0417625
-0.0360061
-0.0223445
-0.0124342
-0.0458445
-0.0452388
-0.0178516
-0.0271035
-0.0402828
-0.0399116
-0.0150937
-0.0272662
-0.0364896
-0.0249196
-0.0217063
-0.00156159
-0.00441475
-0.0138316
-0.0118782
-0.00327853
-0.00794911
-0.0323268
-0.0165443
-0.0043569
-0.0145734
-0.0268155
-0.0207885
-0.009951
-0.00795044
-0.00965319
-0.0214542
-0.0261448
-0.0241368
-0.0353396
-0.0255891
-0.0130206
-0.0202799
-0.0302862
-0.0208877
-0.0220545
-0.0299944
-0.0273596
-0.0255315
-0.0286913
-0.0255833
-0.0236755
-0.0110698
-0.00563691
-0.00617279
-0.010292
-0.013889
-0.00960859
0.00644796
-0.0211931
-0.0142367
-0.00812807
-0.0111392
-0.0200109
-0.004883
-0.0149482
-0.00589632
-0.0204603
-0.0149462
-0.00943198
-0.0261329
-0.0119456
-0.00598731
-0.0133883
-0.0215637
-0.00804244
-0.0257313
-0.00807619
-0.0155544
-0.0192788
-0.0240773
-0.0143168
-0.00823398
0.000862845
0.00644165
-0.0130988
-0.0157379
-0.0310487
-0.0389693
-0.00449844
-0.0275344
-0.0352412
-0.0207946
-0.00719917
-0.012436
-0.0288244
-0.045263
-0.0135025
-0.0126816
-0.0217315
-0.0260283
-0.0165161
-0.0326942
-0.0446865
-0.0302753
-0.0205322
-0.033861
-0.0318185
-0.0429309
-0.0193311
-0.0182411
-0.0379328
-0.0293236
-0.0195769
-0.0340689
-0.0480561
-0.0159118
-0.0146526
-0.00757541
-0.0363597
-0.0275223
-0.0123143
-0.011865
-0.0242942
-0.029467
-0.0122551
-0.0125879
-0.0087132
-0.0276584
-0.00355522
-0.0205092
-0.0272968
-0.0379746
-0.00526654
0.00201823
-0.00829429
0.00855442
-0.00773276
-0.00671891
-0.00555507
-0.00111704
-0.00773922
-0.00136693
-0.00836997
9.31323e-07
-0.00541306
-0.0118634
0.00339395
0.00103969
-0.00793322
-0.00566265
-0.0230553
-0.0143541
-0.00703824
-0.0117945
-0.019552
-0.0111963
0.00914149
-0.0018527
-0.0233853
-0.0128185
-0.0101441
-0.0166786
-0.0102834
0.000423046
-0.00146595
-0.0031424
-0.00334017
-0.013761
-0.00353695
0.00218845
-0.0069441
-0.0101035
-0.0078944
-0.00810914
-0.00957369
-0.00480217
-0.0116181
0.00810096
-0.0068571
0.00128674
-0.0132702
-0.00364345
-0.0203028
-0.0249292
0.00829798
-0.00321119
-0.0296985
-0.0500493
0.00560173
-0.0270366
-0.0180076
-0.0341446
-0.00219352
-0.0101878
-0.01705
-0.0276914
0.0129589
-0.00466221
-0.0141484
-0.0248701
-0.000620252
-0.00552778
-0.0214139
-0.0399103
0.000243706
-0.0296232
-0.0224132
-0.0320406
-0.00216052
-0.0132621
-0.00693754
-0.0355382
-0.0038096
0.00273286
-0.0131006
-0.0140961
-0.00988477
-0.00300333
-0.0155031
-0.0147997
-0.0184421
-0.00795028
-0.00756422
-0.0234381
-0.0191061
0.00452589
-0.0191795
-0.010423
-0.0356841
-0.0085649
-0.143948
-0.134131
0.0766687
0.152341
0.0817002
-0.0320273
-0.0486002
-0.10111
0.0314639
0.110526
0.0564544
0.00386518
-0.373575
-0.158251
0.04329
-0.0235756
-0.0640117
-0.102439
0.142745
0.179808
-0.150774
-0.172934
-0.033667
0.0929727
0.0207706
-0.025791
0.10234
0.132621
0.0500975
-0.0322668
-0.120004
-0.0355678
-0.05603
-0.28081
0.00610387
-0.0939136
-0.162701
-0.0626549
-0.0310572
0.0438598
0.0543506
0.132215
-0.156716
-0.0792178
-0.163007
-0.0745112
0.0624596
0.145209
0.112457
0.00127683
0.281484
0.287575
0.234403
-0.172981
0.177341
0.127561
0.0186052
-0.41464
0.0975797
0.0371668
-0.140796
-0.136871
-0.0610837
-0.0166726
-0.0763436
-0.184641
0.0182787
0.121784
-0.197432
-0.175754
0.168474
0.216332
0.131862
0.0497475
-0.183826
-0.135154
-0.100419
-0.00750289
-0.0163772
-0.242467
-0.218817
-0.372512
-0.00139752
-0.0886668
-0.0985636
-0.033722
0.0855443
0.0232885
0.184485
0.258028
-0.0898502
-0.10659
0.154745
0.0269847
-0.157502
-0.0131645
-0.0570801
-0.0881832
-0.038345
-0.0806855
-0.0663259
0.097419
-0.00477114
0.168795
-0.038413
0.00385531
-0.160709
-0.0562584
-0.0199528
0.126043
0.237639
-0.0208617
0.00970721
-0.141229
-0.0578691
-0.0292656
0.0429306
-0.0851013
0.0459165
-0.0636397
0.20853
0.121285
-0.0594604
-0.0446156
-0.108557
0.0405302
0.157865
-0.185995
0.0434023
-0.061875
-0.095083
-0.114136
-0.205725
0.0815737
-0.1213
0.13024
0.0547783
-0.105127
0.0215404
0.0247287
-0.0519865
-0.186565
0.0610616
0.156172
-0.0144502
-0.185019
0.0755265
0.0257622
0.202531
0.0996736
-0.222771
-0.0854419
0.250896
-0.0486405
-0.048081
0.135778
0.124561
-0.0706743
0.20649
0.30456
0.0578585
-0.0707486
-0.0156503
-0.125463
-0.0880893
-0.0267613
0.222189
-0.0500569
-0.0794243
0.0310639
-0.18801
0.0733393
0.0100361
0.0933832
0.257749
0.290572
0.147604
-0.126905
0.18123
0.212799
0.137107
-0.113406
-0.0612139
-0.0269023
0.216266
0.00850539
0.0664698
0.121293
0.176094
0.0372987
0.0632291
-0.0388422
0.0836217
0.0849584
0.00588434
-0.010447
-0.0308556
-0.0472592
0.0283409
-0.0159298
0.0802441
-0.0954439
0.0137212
-0.0712365
0.0596389
-0.0612421
-0.0979569
-0.223664
0.379111
0.324138
-0.0328766
-0.0597964
0.201108
0.142897
-0.0598437
-0.0141341
-0.0140243
-0.0554368
-0.05254
-0.20622
-0.138072
0.118536
-0.00402831
-0.106002
-0.141973
0.0029834
0.0257002
-0.0467414
-0.217784
-0.0098271
0.0859122
-0.0685527
-0.0601211
-0.108638
-0.0456318
-0.0257089
-0.294264
-0.151691
0.15546
-0.0414503
-0.0426775
-0.110664
-0.0987709
-0.23501
0.143194
0.116675
0.0327468
-0.0474725
0.27356
0.0881786
0.0921324
0.0222055
0.0245801
0.0722241
0.0571248
0.073601
0.104706
0.0744804
0.019097
-0.0242771
-0.0631212
0.0498609
0.0704123
0.224125
0.156685
-0.0473371
0.188854
0.15517
0.159039
0.0522551
-0.00167721
-0.0752537
-0.138064
-0.0591827
0.111789
0.0474489
-0.0872
0.026162
0.11001
0.169182
0.0884327
-0.0690804
-0.00669218
-0.0181732
-0.000649714
0.0517991
-0.125015
0.0131037
0.02097
0.0329607
-0.175392
-0.125026
-0.010537
0.0016257
-0.16239
-0.221557
-0.0144901
-0.0530919
-0.00802999
0.0817544
0.0403225
-0.0554993
-0.0583233
-0.0919564
-0.0343096
-0.0486267
-0.0114135
-0.025658
0.00419751
0.195277
0.052516
0.127708
0.0766499
0.164476
0.125961
0.11745
0.13632
0.0453739
0.0325918
0.0872544
0.00444089
0.0144295
-0.12336
-0.0309202
0.0833794
0.0078189
0.00773498
-0.115021
-0.207877
-0.0825783
0.14033
0.0625625
0.0494912
-0.0649051
0.0187281
0.0456985
0.0666939
0.163382
-0.0166425
0.0634251
0.0889718
0.0264704
-0.0829946
-0.00720058
-0.0445308
-0.0331721
-0.076462
-0.0976007
-0.0592412
0.171372
0.114693
0.0261938
0.0103792
-0.0268902
-0.0629742
-0.0142964
-0.024694
-0.092117
-0.0422417
0.0399164
0.0977338
0.020797
0.0269595
0.0918123
0.0321747
-0.0734983
-0.0485847
-0.0663603
0.0361651
0.159186
0.178783
-0.00109195
0.0504905
0.106228
0.0804714
-0.0192629
-0.0630309
-0.183723
-0.0450183
-0.086836
-0.177175
-0.0126157
0.0164423
0.127106
0.0743255
0.023783
-0.111595
0.0301292
0.0723509
0.0284617
0.0150902
-0.10779
-0.164579
0.103526
0.194704
-0.0860512
-0.0990572
-0.105113
0.0263138
-0.0158303
-0.0132499
-0.0207054
-0.114033
0.0415135
0.0153234
-0.131488
-0.0734557
-0.0961197
-0.142204
0.0776506
-0.0778117
-0.176396
-0.0870396
-0.0400006
0.0630875
0.05257
0.0729041
0.0518078
0.100088
0.214184
0.0699113
-0.0120077
-0.0794551
0.00298275
0.0672365
-0.0695851
0.0893279
0.0573559
0.0475068
-0.0753676
-0.088832
-0.222483
-0.216857
0.111542
-0.122747
-0.104525
0.0106387
0.0397154
0.0271673
-0.0424513
-0.0688392
-0.140375
-0.173076
0.129767
0.184454
0.0459427
0.0201208
0.0692266
0.0201592
0.0769026
0.000432619
0.0245263
-0.0272833
-0.0107346
0.0130246
0.0103309
0.00921146
0.0957659
-0.0479105
-0.0556264
-0.0988256
-0.00290406
0.0238525
-0.0418593
-0.0699207
0.0264999
-0.00822413
-0.0593054
0.0358743
0.254386
0.0126742
0.00536228
0.16701
0.167741
0.0435563
0.0866198
-0.055896
-0.126166
-0.0175298
-0.0473138
-0.0705821
0.00114308
-0.00270633
-0.103794
0.0797259
0.0735765
0.0378299
-0.0755391
-0.158321
0.0234688
0.0366607
-0.211395
0.0659627
0.133083
-0.122926
-0.0360708
-0.0211083
0.0208596
-0.132947
-0.111037
0.0118604
0.0751862
-0.0838617
-0.0589186
-0.141627
-0.0617867
-0.0594839
-0.0173391
0.0543263
0.0642276
-0.090976
-0.0175679
0.0594403
-0.0343658
-0.0994709
-0.0857245
0.22844
0.0442974
-0.0854703
0.0732844
0.152584
0.189497
0.120369
0.123377
0.345747
0.0302002
-0.0513599
-0.123866
-0.127518
-0.0643326
-0.0143025
0.034899
0.0144666
-0.217931
0.093105
0.0947963
0.00765884
-0.0863175
-0.0148579
0.087939
-0.058877
-0.0109229
0.182637
0.127005
-0.0326849
-0.154145
-0.0473793
0.108301
-0.151714
-0.134658
0.0603035
-0.115411
-0.0885592
0.0752712
-0.107606
0.0111643
0.113809
0.0234633
-0.0699397
-0.044422
-0.015127
-0.0188933
-0.184472
-0.100343
0.0263696
-0.0866674
-0.195778
-0.100453
0.128217
-0.0286645
-0.0820197
0.105377
-0.107152
-0.0328922
0.0992743
0.102587
0.00451947
0.046491
-0.0112143
0.119777
-0.082572
-0.00221295
-0.148628
-0.0834848
-0.122011
-0.0415844
-0.048871
0.1517
-0.108708
0.0183307
0.0626166
-0.209795
-0.225086
-0.158053
0.142239
0.0610988
-0.0425353
-0.354515
-0.0959081
0.139778
-0.0699325
-0.110282
-0.192624
-0.060828
0.168639
0.241535
-0.0170843
0.0128809
-0.22328
-0.198638
0.119565
-0.0827689
-0.0660859
0.0349557
0.0510586
-0.0398983
-0.00488687
0.165194
0.088485
0.0815173
-0.0269285
0.0351232
-0.157852
-0.090605
0.340095
0.0263521
0.0602454
0.114046
0.0860947
0.266086
-0.0218203
-0.262039
-0.0753227
0.0608994
-0.102034
-0.132722
-0.0901055
-0.164144
0.0359414
-0.256605
-0.1153
-0.122635
-0.238358
0.16132
-0.00949536
0.0582149
-0.0638634
0.0780497
-0.0860773
0.0397754
0.147176
0.290846
0.231559
0.178972
0.10644
0.238497
0.0817192
-0.193653
-0.139975
0.0544669
0.225924
0.0363111
-0.0727589
0.219396
-0.0236959
0.181509
0.0140304
0.0367492
0.230411
0.155744
0.155152
0.040084
0.0399552
0.0242119
-0.0148125
0.125495
0.134026
0.0322558
-0.0634578
-0.0256222
-0.261012
-0.137984
0.211883
0.0409268
-0.122099
-0.130928
0.158154
0.262569
0.188823
-0.0444666
-0.00335926
-0.182734
-0.0858058
0.0484604
-0.137158
-0.183238
-0.277916
-0.0539822
-0.122257
-0.0987462
0.0875495
0.101622
-0.0510812
-0.0984862
-0.0415906
0.0577032
-0.00188524
0.00786468
-0.0674462
0.00378812
0.0853013
-0.0205591
-0.0288235
-0.0890834
0.0192541
0.0312726
-0.0204482
-0.121157
-0.141282
-0.253474
-0.0904207
-0.109011
-0.00497665
0.0759496
0.019079
0.172354
-0.0243737
0.149115
0.112277
0.0209394
-0.00874822
0.0240368
0.0481483
-0.0658422
-0.00175353
-0.0130471
0.065147
-0.177837
0.0251717
0.0899624
-0.109231
-0.249676
-0.00223554
0.159123
-0.0789149
0.0598229
-0.087362
0.0284975
-0.224973
0.0295534
0.0605047
0.0745896
0.114189
0.141404
-0.115472
-0.00502719
0.0419998
0.174496
-0.234432
-0.37288
-0.159424
-0.0446189
-0.178721
-0.315915
-0.169187
-0.0335604
-0.019385
0.00351784
0.00711459
0.0113319
0.00213747
-0.00170403
0.00596049
-0.000282902
-0.00748691
0.0196863
0.00492599
0.00069169
-0.0125008
0.0269754
-0.00387086
0.000675632
0.0272041
0.0183299
0.0353524
0.0166941
-0.00576327
-0.000788987
0.011614
0.033759
-0.00555981
-0.0112749
-0.00751891
0.036609
-0.00895372
0.0153485
0.0191389
0.0125396
0.0114269
0.0198631
0.034771
0.00148034
0.00537182
0.00434135
0.0291269
-0.00929513
0.00619943
0.0337159
0.0309037
-0.008294
0.0208527
0.0337199
0.00420983
0.000364621
-0.00764821
0.0137698
0.0219115
0.0192875
0.0216518
0.001199
0.0218476
0.0358661
0.0264619
-0.000957966
0.0177995
0.015052
0.0111177
-0.0157408
0.00715069
0.00696738
0.00515721
0.00726047
0.00365924
0.00555592
0.000538819
0.0090956
0.0205878
0.0283738
0.0243937
0.00898178
0.0323075
0.0200417
0.0298016
-0.00372161
0.0292981
0.0137985
0.00263875
0.023957
0.03389
0.0223626
0.00351172
0.011292
0.00270659
0.0126838
0.00645866
-0.00645415
0.0137748
0.0146922
0.0298568
-0.00524399
0.0155753
-0.0117184
0.00304747
0.00580683
0.0163453
0.00796472
0.00298391
0.0263776
0.0112253
0.0157168
0.00475366
0.0181646
0.00313863
0.00349648
-0.00236982
0.0126189
0.00673997
0.00623946
0.00432289
-0.000679852
0.00329653
0.0392942
-0.00510339
0.00577843
9.70102e-05
0.00678113
-0.0133927
0.00764223
0.0313958
0.0175128
0.025312
0.0162723
0.024968
0.0229946
-0.00904962
0.0408718
0.0069571
0.00997049
0.00273711
0.0187987
0.0222841
0.00319114
0.013051
0.00375709
0.0144723
0.025528
0.0138671
0.0233281
0.036961
0.0180503
0.00544726
-0.018261
0.0151862
0.0431711
0.0034748
-0.00945808
-0.00773717
0.018219
0.00297181
-0.00663331
0.00878441
0.0149327
0.0119264
0.017815
0.0115812
0.00537914
-0.0319389
0.00232492
0.0201341
0.0037841
-0.00485073
-0.00056822
0.00977688
-0.000951491
-0.00366405
0.0155166
0.0235894
-0.00545377
0.00424255
0.006982
-0.000536427
0.00380888
-0.0269255
-0.0100872
0.00133339
0.0305893
0.00836842
0.0141621
0.0226626
-0.00803854
-0.0108524
0.000370762
0.034218
-0.00184249
0.00886023
0.0156623
0.00288757
-0.0198759
0.00682377
0.0155444
0.000415082
0.00548847
0.00362722
0.00480779
0.00932586
-0.00141162
-0.00907584
-0.0058397
-0.00525954
0.000215704
0.00458472
-0.00517207
0.0189994
0.0195012
0.00620451
0.0345261
-0.00777669
0.00361504
0.000913393
-0.00352463
0.0259151
0.0205785
0.00554952
0.00988779
0.000122814
0.026134
0.00666678
0.00964513
-0.000130582
0.0342235
0.00796918
0.0132539
0.0214049
0.0136853
0.0143227
0.000803677
0.0230377
0.0259103
-0.00213655
0.0164763
0.023298
0.036136
0.0126264
0.0203056
0.0194847
0.0313029
0.0039667
0.00794107
0.0229043
0.0212639
0.0180178
0.0343864
-0.0158024
0.00366458
0.0126872
0.0184932
-0.00842827
0.0227337
0.0268496
0.00511769
0.00552335
0.0242824
-0.0247832
-0.00615436
0.0324365
0.00306281
0.00115495
0.00281746
0.0277427
0.0255174
-0.00454334
-0.0197924
0.0168251
0.00581108
0.00519333
0.0388719
-0.0215908
0.0253708
0.014007
0.0432128
0.0481596
-0.0148895
-0.0390849
0.0280037
0.0554053
0.0536776
-0.00570272
-0.0515397
-0.0124911
0.0390912
0.00156463
-0.00539554
0.0197559
0.00211493
0.0369706
0.00443543
0.0279859
0.0165621
0.032759
-0.00870058
0.0231628
0.0156095
0.0154264
0.0110087
0.0482022
0.0318157
0.0152266
0.026217
0.00509058
-0.010058
-4.45356e-05
0.00344471
0.0345221
0.0376915
0.0330059
0.0215925
0.0345538
0.0430971
0.00972077
-0.001584
0.00627042
0.0146926
0.0323702
-0.0108415
0.0160927
0.013184
-0.0113248
-0.0182638
-0.00656569
0.0249069
0.0182308
0.0310267
0.0166807
0.0402982
0.0135171
-0.0150269
0.0213247
0.0327292
0.0271178
-0.0119801
-0.000383571
0.0183969
-0.0106302
0.0363775
-0.0022035
0.0277648
-0.0203099
-0.00342475
-0.040193
0.0121925
0.00720346
-0.0126781
-0.0296159
-0.0196257
0.0212417
0.0116397
0.0171774
-0.0148754
-0.010881
-0.00330305
0.00790737
0.00737637
-0.00974902
0.00422399
0.014828
0.00661465
-0.00323846
0.0188944
0.00725728
-0.00344375
-0.0102885
-0.00736068
-0.00687914
0.00127633
0.00930828
0.0586613
-0.0323295
0.0438137
-0.0271548
0.00859456
-0.0141694
0.0407467
-0.00199661
0.0303606
0.0153751
0.0122511
0.0486478
0.0382406
0.0167287
-0.00483755
-0.0233183
0.0302426
-0.042475
0.0564489
-0.0134776
-0.0075084
0.000609189
0.0234936
-0.00169356
0.0252926
-0.00391584
0.0298951
0.0324408
0.0153689
0.0273874
0.0112596
0.00470319
-0.0234447
0.042545
0.0478888
0.0276605
-0.0315092
-0.0123037
0.0320523
0.0295808
-0.00769617
-0.00950004
-0.000701206
0.0337663
0.0252695
0.00300995
0.0175261
-0.0280679
-0.0272861
0.00440315
0.00809528
-0.00626537
-0.0303122
0.0308314
-0.00634478
-0.00130048
0.011344
0.0222537
-0.000306378
-0.00044556
-0.0100945
0.0132033
0.00909818
0.00274831
0.0375652
0.00385223
0.035329
0.0159336
0.0101909
0.0338964
0.0252499
-0.0166296
-0.020547
0.0547219
0.0395853
0.0232349
0.0263851
-0.016957
-0.0297204
0.0079627
0.0190759
0.0057124
-0.00812292
-0.0181588
0.0176117
0.0045203
0.0122887
0.00719695
-0.00918791
-0.0088247
-0.00127568
0.0118414
-0.00306614
0.00749883
-0.00584555
-0.00208934
0.0409497
-0.0967505
-0.0493309
-0.000771689
0.0159074
-0.0390133
-0.043616
0.0207822
-0.00778092
-0.0216045
-0.0133678
0.00903026
-0.00364662
-0.00246261
0.017938
-0.00450209
0.01839
-0.0307202
-0.00437637
0.00727084
6.99984e-05
-0.0284641
-0.00303454
-0.0156481
0.0048312
-0.0266163
-0.0278804
-0.0157406
0.0167676
0.0126343
-0.00580489
0.0112423
0.00910802
0.0380317
-0.00616974
0.00418999
0.042047
-0.0419263
-0.0203243
0.028587
0.0768562
-0.0304246
0.0103185
0.0328947
0.00920598
-0.0254817
0.0266187
-0.0900697
-0.0370613
0.0661582
0.0841203
-0.0790285
-0.117954
0.0259323
0.0598249
-0.00304654
0.208584
0.100411
-0.0960433
-0.00818344
0.130305
0.336927
0.199417
-0.112555
-0.0482259
-0.0236261
0.163239
-0.104002
-0.208286
0.0400354
0.0512164
0.1177
0.0900355
0.00459491
-0.151226
0.00276877
0.0779774
-0.0458206
-0.0795677
-0.00167623
0.23668
0.20269
-0.0759163
-0.161116
0.126043
0.134598
-0.0648785
-0.0243591
-0.103915
-0.233272
-0.0908685
-0.0120433
-0.0236631
0.0638764
0.0993774
-0.172197
-0.149304
-0.0135945
0.101052
-0.294995
-0.263602
-0.0601475
0.291113
-0.0967417
0.0831447
0.0663546
0.256646
-0.0717149
0.159604
0.116731
0.0351709
0.0608401
0.0847974
0.0442777
0.0242017
-0.0360915
-0.0423231
0.18862
0.129484
-0.105641
-0.229033
-0.256259
-0.050002
0.170811
0.114791
0.0247452
0.0337285
0.0690706
0.00224468
0.229394
0.203877
0.00266456
0.0910671
0.00597634
-0.241165
-0.139346
-0.0462531
-0.187768
-0.162541
-0.00912934
-0.0339811
-0.0239516
0.112083
0.046069
-0.00722169
-0.0694038
-0.0792496
0.0897359
0.127912
-0.0637149
-0.110681
0.00486675
-0.0897494
0.097791
0.0142396
0.119416
0.0313941
0.0503712
-0.0832446
-0.315268
-0.0811361
0.06434
0.200503
0.0776816
0.0965831
0.0078574
0.133346
-0.00548243
-0.144576
-0.125885
-0.128672
-0.0152724
-0.0967877
0.000912553
-0.152461
-0.0915881
0.0583891
0.0122121
-0.0901219
-0.120436
0.131806
0.129865
0.0407523
0.108038
-0.193282
-0.0622339
0.0452011
0.0831148
-0.00663326
0.129276
0.231976
0.00159323
-0.0590926
0.0153633
0.034259
-0.197389
-0.00453194
-0.196716
-0.0882691
-0.031684
0.145145
-0.225885
0.0273226
-0.0180351
-0.143857
-0.0662401
0.219902
-0.0919477
-0.209947
0.0155824
0.116107
-0.0153662
0.162892
0.183891
0.0118234
-0.116904
0.0357029
0.0499904
-0.0116845
0.229257
0.0655415
0.00910796
-0.0867531
-0.226412
-0.156374
0.174987
0.121579
-0.171947
-0.0225533
-0.0681481
0.138671
0.0199193
-0.129404
-0.25184
-0.200952
-0.144516
-0.108121
-0.12792
-0.00262213
-0.0692081
-0.023613
0.0317348
-0.0563696
0.00720548
0.0220517
0.0500603
0.0110863
0.00455286
0.00491455
-0.0621095
0.110515
0.0164136
0.0166443
-0.0222704
0.0780276
-0.0221297
0.0469886
-0.245294
-0.189403
-0.000476225
-0.0334361
0.0204735
0.206572
0.0589351
0.0449165
0.130835
0.00523136
0.0499996
0.124081
0.0147251
-0.0303105
0.000162048
-0.0230502
0.0641912
0.1726
-0.0305738
-0.0303901
0.0884414
-0.0251019
0.0193556
-0.0285759
-0.151363
0.175125
-0.00127264
-0.0462212
0.00336632
0.116001
-0.00639417
0.126419
0.158075
0.238081
0.099172
0.151105
0.164715
0.0715809
-0.0535168
-0.193308
-0.16656
-0.119219
-0.184145
-0.118449
0.0074342
-0.0314397
-0.0514448
-0.102696
0.102224
-0.0213622
-0.117081
-0.147035
0.149682
0.0894359
-0.0712554
0.062378
-0.0289559
-0.105835
-0.0600963
-0.0180797
-0.0266733
-0.0629876
-0.184895
-0.109317
-0.0228345
-0.0201377
-0.114557
0.191236
0.301432
0.133751
0.0150018
0.0996604
-0.0296593
0.100003
-0.0641335
-0.067751
0.0126224
0.00878502
0.144006
0.0200045
-0.138853
-0.0361853
0.100193
0.0136742
-0.121774
0.0405239
0.0375589
-0.130566
-0.0923735
-0.0736236
9.45153e-05
0.016419
0.101934
0.0978946
-0.0857931
-0.163354
-0.124735
-0.0247429
-0.23415
-0.164571
-0.0878015
0.161634
-0.174637
-0.032401
0.0617802
0.158674
0.0622801
0.0467644
-0.0552705
0.0085411
0.068272
0.141028
0.135102
0.0931773
-0.0326879
-0.0562842
-0.0412907
0.0396489
-0.154366
-0.154202
-0.147531
-0.0437709
-0.100875
0.0322515
0.0376518
0.0833988
-0.00125913
0.0279376
-0.0689565
-0.0297425
0.0800194
0.0650352
-0.0910653
0.0404236
-0.0183631
0.10025
0.0231467
0.0787482
0.011869
0.176377
0.047474
0.0464469
0.0720376
0.0723733
-0.00451671
0.0555465
0.0029112
-0.034613
0.0589238
0.125248
-0.0605584
-0.0784243
0.0150375
0.0371447
-0.0135965
0.000682251
0.126355
-0.0109024
-0.211196
0.104358
0.156442
0.0861256
0.161252
0.0289595
0.0576146
0.0349901
0.0387926
0.019504
-0.0599446
-0.141721
-0.151934
-0.128028
-0.160892
-0.0523291
-0.0636101
0.117264
0.0958319
0.155956
0.0314263
0.193216
0.11506
0.131204
0.023846
-0.0145847
0.0386836
-0.0945042
-0.130679
-0.16272
-0.177632
-0.101041
-0.171206
-0.0790814
-0.213316
-0.0427237
-0.0430983
0.0198915
-0.152623
0.0549809
0.0989232
0.0733463
0.076658
-0.0130884
0.0597711
-0.0388406
-0.121592
-0.151862
0.0835906
0.081226
0.0192544
0.0391874
-0.0471168
-0.00705766
0.0250136
0.0349961
-0.144978
-0.0146119
-0.0648873
-0.0663581
0.0691218
0.0117079
0.0216158
-0.0323474
-0.0294669
0.209787
-0.0235502
0.175783
0.00816344
-0.0787409
-0.134637
0.0214954
-0.116769
-0.314749
-0.0468871
-0.0808549
-0.0889012
0.029083
0.121028
0.0356018
-0.0517411
-0.0305781
-0.0372745
0.026508
-0.00396195
0.0511453
-0.0210676
0.0435742
0.0585553
0.030075
-0.0299643
0.0491754
-0.0137915
-0.00290747
-0.0568042
0.00932374
0.0406081
0.0581481
-0.215379
-0.112416
0.0420629
0.203081
-0.0518378
0.0287281
0.050445
0.169358
0.0633273
-0.128761
-0.0260732
0.140546
0.10313
0.0186653
0.00109064
0.00868693
0.0169417
-0.0474636
-0.0153416
0.2419
0.247054
-0.00557942
-0.0135444
0.243991
0.180591
0.0798635
-0.00178596
-0.0462025
0.186379
0.15863
0.100189
0.00274534
-0.145486
-0.119085
0.0480144
0.0741169
0.01584
-0.248884
-0.0111716
0.155555
-0.154402
-0.155496
-0.00107017
0.173188
0.174302
0.0021488
-5.37869e-05
0.0243387
0.0115753
0.00228938
0.0161727
0.0191763
0.00685206
0.00255283
-0.00179181
0.00496626
0.0120126
0.0193268
0.00910055
0.0107079
0.000696636
0.00767083
0.0112448
0.0214156
0.00616019
0.0154242
0.0170523
0.0165095
0.00978496
0.0103415
0.0141876
0.00194615
0.0229525
0.0086313
0.011604
0.0224641
0.0305335
0.00472489
0.0184225
0.0371947
0.0392315
0.023379
0.0247057
0.0244695
0.0368648
0.0246619
0.018006
0.0360536
0.0400074
0.035399
0.0223552
0.035363
0.0331559
0.0131756
0.00320797
-0.000716361
0.0192371
0.0152085
0.00772531
0.0182243
0.0124872
0.0269527
0.0215391
0.0190628
0.0175523
0.0139238
0.00934624
-9.57604e-05
0.0106594
0.00967654
0.0131466
0.0137049
0.0330756
0.0146454
0.00144484
0.0145031
0.00913475
0.0188142
0.0127597
0.0257375
0.0187859
0.0230184
0.0162561
0.0262405
0.0303052
0.020449
-0.00130255
-0.00176465
0.0205785
0.00530624
0.00710888
0.00297749
0.0210231
0.0177027
0.0206995
0.00988431
0.0267737
0.018232
0.00237633
0.0122903
0.0253532
0.0149373
0.00412975
0.0143115
0.00137159
0.0129125
0.00491992
0.0213541
0.00723648
0.0130399
0.0118022
0.0294508
0.0089091
0.0277791
0.0073665
0.0142604
0.00924416
0.0165355
0.0171403
0.0182642
0.0138821
0.0184307
0.0187867
0.0156958
0.0329671
0.0273917
0.0010295
0.018969
0.0229784
0.0284549
0.0184986
0.0224233
0.0358028
0.0275293
0.0233239
0.0315308
0.0253739
0.0369996
0.0170169
0.0360463
0.0376103
0.0445838
0.0151653
0.0343644
0.0275034
0.015562
0.0231045
0.0404532
0.0403574
0.0217921
0.00879211
0.0163207
0.0262806
0.0258524
0.0128428
0.011692
0.0314893
0.0225394
-0.00664793
0.019205
0.0168516
0.0367014
0.00524734
0.00952029
0.0212634
0.043747
0.00280506
0.00508893
0.0186718
0.00228061
-0.00641284
0.00755447
0.00757749
0.00866974
0.0119523
0.0065597
-0.00725166
0.00799626
0.000487537
0.00541531
-0.000478114
0.00974023
0.0241097
0.00629473
0.0203548
0.0103667
0.0107811
0.00587272
0.00750654
-0.00590373
0.000401111
-0.00174718
0.012946
0.00463244
0.0110367
0.0107544
0.017695
0.00838418
0.00571815
0.00927556
0.00367898
0.00541069
-0.00116988
-0.000344472
0.00415504
0.0142765
-0.00171968
0.00969978
0.00277247
-0.00145193
-0.00348055
-0.00164998
0.00811531
0.0131868
-0.009603
-0.00993348
-7.16009e-05
0.0588516
0.00111858
0.00223502
0.0174582
0.0256398
0.0120231
0.00574889
0.0168931
0.0241912
0.0106262
0.0020288
0.0122914
0.021342
0.0101642
-0.00921467
0.00637679
0.0252331
0.00190208
-0.00135332
0.0045214
0.0409813
0.00307504
0.01973
0.00670938
0.0209172
0.0052507
0.00991302
0.0245094
0.0227642
0.00133487
0.00207774
0.0226801
0.011936
0.00303468
0.0154467
0.0134752
0.0198917
0.000275765
0.0131788
0.0187183
0.0216087
0.0191216
0.0154399
0.00346896
0.0166134
0.116377
0.106883
0.21349
-0.00845006
-0.0101975
-0.0846333
0.0402665
0.027396
-0.00584067
0.0494093
0.0123149
-0.0855287
0.164738
0.0676108
0.113334
0.0222633
0.0681089
-0.147049
-0.136873
-0.171818
0.15791
0.154699
0.0492319
0.0251495
-0.00123068
0.17024
0.0227518
0.0149492
-0.0288723
-0.06729
-0.00205952
0.0865993
-0.041946
-0.132924
0.00144915
0.235354
0.0739068
-0.142186
-0.0343441
0.121033
-0.0453928
-0.287954
0.0524416
-0.0466566
0.0218259
0.111815
0.208018
-0.0660589
-0.0354008
-0.105871
-0.201286
-0.217411
0.105916
0.0647384
-0.0425299
-0.0240928
-0.0417735
-0.0269467
0.0268883
0.163504
0.159268
0.130815
0.0945354
0.0893507
0.0809821
0.077849
0.0700054
0.0819019
-0.0902442
-0.0173145
-0.08867
-0.120329
-0.111076
-0.160136
-0.182489
-0.0734233
-0.0323817
0.103306
0.0730763
-0.0575662
0.00826353
-0.0569266
-0.125847
0.106315
0.081143
0.132451
0.0900292
0.138182
0.0111865
0.118252
-0.0649645
-0.039424
-0.0812223
0.0402282
0.0319541
0.186586
0.056349
0.0536281
0.0846661
0.0381744
-0.112155
-0.123988
0.0348853
0.00716506
-0.097512
-0.0528988
0.0320755
0.100436
-0.0130103
0.11245
0.0604054
-0.0188878
0.041455
0.0713373
0.184512
0.0842872
0.177372
0.0987446
0.0425244
0.0715808
0.0721356
0.0695797
0.00631516
-0.150901
-0.269494
-0.131099
-0.169931
0.00267183
0.132466
0.142277
-0.0313943
0.0942347
-0.0802133
0.0321302
0.0413249
0.0337889
-0.0879987
-0.0146994
-0.255713
-0.0443778
-0.0735336
-0.0597021
-0.186505
-0.29251
0.0742813
0.0327169
-0.0332071
0.0189482
-0.0863676
0.0955165
0.105233
0.0898029
0.0601453
-0.0445593
-0.0695577
0.0655309
-0.0688846
-0.145924
0.00732579
-0.0928219
0.137653
0.0248758
-0.0451556
-0.01929
0.109648
0.141738
-0.0503768
-0.013879
-0.0820376
-0.0279634
0.00527229
-0.100506
-0.0281796
0.0314305
-0.0229448
-0.103996
0.170732
-0.0001512
-0.238785
0.140232
-0.0115052
-0.139617
-0.00544107
0.0542641
0.0453829
0.021865
-0.070796
0.0406197
-0.24653
-0.0291243
0.261382
0.148532
0.0327929
0.0344725
-0.0705446
0.0876295
-0.00511039
-0.0225472
-0.0639062
-0.00922571
0.0297535
-0.00427344
0.00187308
-0.0115777
-0.0349984
-0.00922545
-0.0796803
-0.0912811
0.0357848
-0.0321198
-0.161069
-0.0311767
-0.00253232
0.0126615
-0.0962496
0.0283622
0.0211223
0.0809391
-0.0207317
0.00765498
0.00147494
0.202433
0.131594
-0.122661
-0.0309314
-0.0387124
-0.0780896
-0.139593
0.0788982
0.0342397
0.0837343
0.0441358
0.083712
0.136152
0.0361293
-0.113595
0.0468917
-0.0666367
0.203289
0.240048
-0.0652681
-0.10857
-0.150798
-0.108049
-0.109902
-0.0737426
-0.0643787
0.00185275
-0.0832725
0.063447
-0.0284516
0.0183457
-0.00723222
0.0910198
-0.0423249
0.080251
-0.106078
-0.0331764
-0.0104582
-0.0556186
0.0242512
-0.039202
0.11099
0.138652
-0.161564
-0.202889
-0.127205
-0.00232985
-0.206175
-0.20578
-0.0386487
-0.00541
-0.149239
-0.0835353
0.01512
0.0191647
-0.160105
0.00130588
0.18978
0.0949058
-0.0517655
-0.044803
-0.0674674
0.180698
-0.0391267
-0.0156848
0.12544
0.0867267
0.221979
0.102914
-0.0413976
0.0484147
0.190538
0.028512
0.0569708
0.0328589
0.0556123
0.0939592
0.0394761
0.0393486
-0.0228962
0.120069
0.0149599
-0.0368316
-0.0483455
-0.111746
-0.0704103
-0.0412668
-0.204593
-0.385792
-0.111815
-0.0937717
-0.123526
-0.290168
0.00979135
0.111173
-0.0650715
-0.188351
-0.110339
0.097739
0.0560194
0.153391
0.134575
0.1277
0.000130898
0.0743708
-0.00610666
0.0908924
-0.333815
-0.177478
0.0311019
-0.0447985
-0.166271
-0.0983791
-0.0126896
0.0105552
-0.061238
0.0183439
-0.0971157
-0.219194
0.00201983
0.121936
-0.0496222
-0.0344819
0.000442293
0.00972592
-0.0120861
0.0330162
0.0498954
0.21507
0.183608
0.0814748
0.0867971
0.127733
-0.0576402
0.0170907
0.152489
0.0492152
0.0330783
0.147791
-0.0473205
-0.0992087
-0.0770477
0.0273043
0.00897006
0.0232889
0.145868
-0.0109481
-0.179839
0.0120879
0.0668503
0.000598245
0.0106218
-0.0524323
-0.0248683
0.17042
-0.140168
0.0568813
0.0232995
0.0565379
-0.114441
0.0502591
-0.0578888
0.0522345
-0.0522029
0.0842101
0.144533
0.0597815
0.0372634
0.196169
0.16508
-0.0358674
-0.0465901
0.0833268
0.0171938
0.0482398
-0.392756
-0.171188
-0.0142751
-0.126258
-0.230673
-0.156227
-0.0529804
0.00133736
0.0408626
-0.125507
-0.0755775
0.1357
0.149593
0.110403
0.0995249
0.0730852
0.0924413
-0.00394196
-0.107138
0.0359088
0.0469162
-0.0328408
0.0323662
0.0164152
-0.150138
-0.17758
0.0374215
0.0369377
-0.139459
0.0191328
-0.0467856
-0.0409278
-0.113273
0.0131196
0.0308788
-0.0270521
-0.113387
0.201635
0.10923
0.155653
-0.0968199
-0.162459
-0.13724
-0.0371398
-0.219562
-0.0846611
-0.041315
0.0952301
0.0153213
-0.111187
-0.168604
0.0337473
-0.0576772
-0.0321002
-0.0643848
0.00358393
-0.0254533
0.0248588
0.0569042
0.0126385
-0.0088372
-0.0277858
-0.0466201
-0.0369598
-0.010276
0.0223917
0.0156534
0.0617263
0.0512614
0.0547984
-0.168416
-0.0620834
0.0718331
0.140504
-0.111448
0.074671
0.0589934
0.0722417
-0.108288
-0.123477
-0.032581
0.130333
0.0822183
0.00391741
0.0359884
0.0553453
0.144903
-0.133411
-0.0192062
0.133264
0.0322248
-0.0210691
-0.0146654
0.286001
0.310497
0.0451908
0.0285129
0.180111
0.233078
0.149264
0.110321
0.0805032
0.0461714
-0.0732083
0.0467149
0.143219
-0.015613
-0.19636
0.0513757
0.11228
-0.00362674
-0.0808633
0.0818364
0.148279
0.059309
0.0689217
0.0601199
0.204391
0.156977
0.0621986
0.0742588
0.0639069
0.147659
0.0228135
0.0450876
-0.0594258
-0.112283
-0.162441
0.0919447
0.116768
0.0715939
-0.069061
0.0617954
-0.105174
-0.129546
-0.214424
0.243304
0.297388
0.0332512
-0.139194
0.0370175
0.000130643
-0.0365775
0.100663
-0.124171
-0.0150385
0.0252295
-0.05535
-0.0787738
-0.119178
-0.302452
0.0189312
-0.0813294
-0.166055
-0.165471
-0.0424873
-0.025854
-0.0897066
0.0723436
0.0959326
0.095871
0.0560157
0.189473
0.000849504
-0.0155848
-0.0750325
-0.156029
-0.230022
0.186868
0.316319
0.0827589
-0.100122
0.0933973
0.182207
0.10035
0.15772
0.0216993
-0.0467885
-0.157269
0.0638561
0.0762275
0.000558134
0.0795004
0.031944
-0.205763
-0.203553
-0.301087
-0.242238
-0.0534429
-0.0350277
-0.0443536
0.00643452
0.0287606
0.168661
0.0702802
0.139195
-0.0388738
-0.279883
-0.320239
-0.316038
0.0213522
-7.3795e-05
0.0871423
0.195473
-0.0986861
0.112128
-0.0171415
0.166039
-0.0920624
-0.0141214
-0.117598
0.134849
-0.0523467
-0.000847314
-0.0751596
-0.00287181
-0.0699868
-0.119475
-0.0122727
0.020887
0.00900021
0.00149903
0.102848
0.111975
-0.0495397
0.0559384
0.09187
0.0107686
0.234661
0.156266
0.229539
0.051476
0.177075
0.0669083
0.148459
0.0857076
0.0182112
-0.04628
-0.106569
-0.126724
-0.10265
-0.0701043
-0.0111627
-0.038627
0.231258
0.0120947
0.0932839
0.194297
-0.226711
-0.196281
-0.108339
0.112128
-0.105831
0.0205747
-0.147959
-0.0705038
0.137377
0.0950754
-0.0643935
-0.0890219
0.0915024
0.0914186
-0.104292
-0.0858284
0.0695555
0.0810953
0.196953
0.249009
-0.0829451
-0.0573065
0.0774079
-0.000367827
0.0179413
0.00702083
0.0470396
-0.154627
0.270709
0.271294
-0.0222502
-0.0823961
0.00146316
0.0201846
-0.0470534
0.00376901
0.084801
0.0711058
-0.0880207
-0.0493176
-0.100426
-0.138847
-0.0494086
-0.0241731
0.22329
0.180298
-0.00708972
-0.0462014
-0.0330432
-0.136531
-0.0760763
0.0613554
-0.0767834
0.0532683
0.0687419
0.125745
0.0729824
0.078054
0.192055
0.00460846
0.0419095
-0.0354917
-0.0305544
0.0999846
0.0012978
-0.0491567
-0.0877908
-0.0312257
0.0358344
-0.0113048
0.00313861
-0.0311204
-0.0391007
0.00751163
0.00734273
-0.0534183
0.00505546
-0.207661
-0.0257655
0.0394141
-0.0154532
-0.0213445
-0.0229976
-0.132158
0.000116043
0.00642124
0.0266318
0.0548433
-0.0198994
0.00456442
0.0877781
0.161497
-0.0761608
-0.120986
-0.387463
-0.262793
0.0682534
0.0032591
0.0166796
-0.0256513
0.144662
0.0552997
0.161499
0.00281258
-0.0376154
-0.0109298
0.0730807
0.134954
-0.082469
-0.170586
-0.270681
-0.214176
-0.13792
-0.312015
-0.162963
-0.136799
-0.0483376
-0.0413651
-0.059957
-0.0225462
-0.00300309
0.0345475
-0.0111698
-0.000417505
0.0982641
0.0584103
0.00922468
0.102494
0.0725988
0.046457
-0.148491
0.0554631
0.0817864
-0.0608111
0.0660016
-0.0554969
0.0623746
0.0224317
-0.137671
-0.0610849
-0.0207259
0.04894
0.0024902
-0.0375975
0.0412698
0.0869112
-0.0571523
0.0610431
0.0322247
0.0558077
0.133377
-0.0404368
0.0862944
-0.0204126
0.0282794
0.0294159
-0.0611732
-0.102615
-0.0709835
0.0149166
0.10574
-0.124578
-0.0214895
0.0505134
-0.0401006
-0.00777347
0.0104086
-0.024773
-0.000394788
-0.11869
-0.0817172
-0.0639038
0.00781122
0.0119651
0.0224154
-0.00689401
0.086315
0.127744
0.0293907
0.12736
0.12916
0.231055
0.00526844
-0.010151
0.0323306
0.0385804
0.097971
-0.0126571
0.026734
0.0353521
-0.0146574
0.0132104
-0.0083832
-0.00210982
0.0450422
-0.0228301
0.165682
0.130275
0.0157926
-0.034356
-0.00157545
-0.0978569
0.00693565
-0.0371987
0.0126836
0.145738
-0.010814
0.0694386
-0.0531503
0.00912799
-0.0536074
0.0944006
0.0404331
0.0440203
0.0508426
0.07627
0.0173235
0.0172575
-0.0948641
-0.0669743
0.0565069
-0.053483
0.0387857
0.033133
-0.0953721
-0.0210502
0.0321561
-0.0550613
-0.0517272
0.039774
0.0255865
-0.0850895
0.00345571
0.00579337
0.00610946
-0.0186306
0.0889893
0.0844303
-0.140509
-0.020075
-0.060315
-0.0323193
0.0253691
-0.11852
0.145306
0.16872
0.0693015
-0.0744826
0.0292254
0.0479931
0.0185118
0.0726982
0.0488269
0.172916
0.0675931
0.000246417
0.139915
-0.0230498
-0.0631022
-0.0168229
0.0580365
0.121382
0.0322774
-0.00708537
-0.00104731
-0.210874
-0.178843
-0.144574
-0.0260072
-0.0438166
-0.0831415
-0.0180425
0.180463
0.0406211
-0.106061
-0.138193
0.0364447
-0.113851
0.0248643
-0.0512757
-0.00891024
-0.0183414
-0.0872655
-0.169139
-0.0123508
0.0425135
0.0272608
0.0159595
0.0424354
-0.032544
-0.0354575
-0.0275996
0.13557
0.000100689
0.0853468
0.0479647
-0.105714
-0.0364755
0.0368705
0.0307241
-0.0301248
-0.0923461
-0.15973
0.0331184
0.042043
0.118323
0.118228
-0.0449126
0.133845
0.0273735
0.134828
-0.047754
0.117541
-0.0231782
-0.0662753
-0.0770449
0.0447
0.0848011
0.0366332
-0.00852023
0.0301678
-0.00239704
-0.0205611
-0.0265947
0.0118987
0.0366806
0.0496172
0.0537331
-0.0380395
-0.0268842
-0.0251708
0.0408403
0.0651539
0.0754673
0.0937189
0.0213975
-0.015225
-0.0145235
0.0528362
0.0468023
0.00858646
-0.0131239
0.0914048
0.0435348
-0.0224398
-0.0477388
-0.0206957
-0.0109943
0.0067494
-0.0134119
-0.112861
-0.048092
-0.0361665
-0.0421166
0.0438685
0.0466099
-0.0142364
-0.0878703
0.00728627
-0.0351363
-0.00957915
-0.100743
0.0686691
-0.0267621
-0.0618482
-0.037691
-0.0444889
-0.0861763
0.0249295
-0.046912
-0.0175992
-0.102095
0.0772254
0.131884
0.0346929
-0.0726056
-0.012483
0.067857
0.0935106
0.043079
-0.123509
0.0817717
0.0117375
0.0894041
0.0606264
0.127567
-0.0934262
-0.0113021
0.100117
0.0685468
0.114407
0.179954
-0.156653
0.0077053
0.0379512
0.0428264
0.0703634
0.29094
0.157453
0.0902811
0.0822478
-0.20983
-0.197261
-0.176564
0.0299428
-0.0997772
0.0950881
-0.106966
-0.0348306
0.206821
-0.0665418
-0.179202
0.0821528
0.0681038
0.0425723
-0.144756
-0.19617
0.0492895
0.109994
-0.169097
-0.0365974
0.221114
0.026502
0.0244974
0.123593
0.00347725
-0.133915
0.0176301
0.0655234
0.154439
0.26145
0.262924
-0.0162328
0.107149
0.109214
-0.0876981
0.145045
0.0378436
0.145905
0.019319
-0.229732
-0.0757294
-0.0329035
-0.00582213
-0.0762518
-0.0792635
-0.135498
0.00257107
-0.0900289
-0.000798276
0.0745126
0.121678
-0.00123466
0.0982852
0.0556357
0.0464195
0.209895
-0.0195056
0.0417586
0.101928
0.00197597
0.0314046
0.0469706
0.0299962
-0.075585
-0.0607107
-0.000600926
-0.17926
-0.150701
-0.165302
-0.0188632
-0.126551
0.0657002
-0.162536
-0.112209
-0.0687677
-0.0685144
-0.0529149
-0.0794949
-0.139666
0.167541
0.150402
-0.068032
-0.15204
0.0404557
0.0159217
-0.0735385
-0.137596
-0.0110406
0.0113878
-0.0307655
0.0485411
-0.0271864
-0.117179
0.0744652
0.052776
-0.0900205
-0.0939526
-0.0377003
-0.0503306
-0.270322
-0.105621
-0.00428836
0.220891
0.271858
0.111354
0.13636
-0.0697991
-0.125569
-0.247653
-0.189018
-0.286865
-0.0433929
0.0654893
0.0245882
-0.153232
0.0114774
-0.0994568
-0.153914
-0.0414621
0.256272
0.309886
0.190106
0.364471
0.169245
0.256165
0.150281
-0.0402198
0.0234771
-0.137071
0.147916
0.0113467
0.00685458
0.138313
-0.148041
-0.0276297
0.120397
0.014337
0.126398
0.192458
-0.0586551
-0.137312
-0.0170554
0.0085922
-0.0127542
0.0732194
0.204421
0.0213159
-0.0195807
0.0677924
0.036394
0.0422516
0.0939696
-0.0144655
0.00800677
0.0294134
0.0642182
-0.0157072
0.134767
-0.336238
-0.0547137
-0.0427362
0.204822
0.125363
0.044162
0.263109
-0.01154
0.0128225
0.161658
0.0663337
-0.1494
-0.0819942
-0.0139598
-0.0453831
-0.0258678
-0.0579133
0.0136502
0.0196809
0.0319912
-0.113112
-0.0821472
-0.0632827
0.0151091
0.0261351
0.101688
0.0457096
0.0896421
0.0370982
-0.101486
-0.0932662
0.0404739
-0.0498971
-0.0881174
-0.213739
0.0792547
-0.0786896
-0.0732555
-0.213897
-0.0781843
0.0932956
-0.02779
-0.151149
-0.0872007
0.136988
-0.00440889
0.0397676
0.0621755
0.0447438
-0.0528191
-0.247177
-0.319907
-0.181357
-0.0872027
-0.173169
-0.12186
0.174375
-0.077879
0.109471
-0.209439
-0.203756
-0.0874113
-0.047334
0.268016
0.211619
-0.0549296
0.00905392
0.0231204
0.316461
-0.0417923
-0.310235
0.0801588
0.0753037
-0.106489
-0.171304
-0.018197
-0.135012
0.0422219
0.0421708
-0.0191427
0.00665949
-0.0155822
-0.0320288
-0.0502835
-0.00851284
0.039291
0.0277622
0.0171936
0.0228089
0.0311975
-0.0272395
0.0625597
0.0349826
0.0263307
-0.0431245
-0.0630514
-0.015453
-0.0216105
-0.022664
-0.0342439
-0.0404663
0.0366753
0.058923
0.0391888
-0.0339924
-0.000928469
-0.0465675
-0.0192402
-0.000342219
-0.0252197
-0.000554363
0.000248973
0.0118787
-0.00746665
-0.0317343
-0.0547041
0.0251411
0.0237668
-0.0292206
-0.0313968
0.0301716
-0.0393707
-0.0272005
0.0362238
0.0492149
-0.000571139
-0.0147597
-0.0416658
-0.0422139
-0.0163189
-0.0264524
-0.07358
-0.0448511
-0.0356932
0.0256036
-0.0189868
-0.0295965
-0.0315549
-0.0375475
-0.0184385
-0.0137105
0.0253612
0.00780673
-0.0114646
-0.00774735
0.0093503
-0.0187576
-0.00131301
-0.044413
0.0312431
-0.00388464
-0.0488617
-0.0220805
-0.0175924
0.0331269
-0.00361942
-0.0550283
0.0115109
-0.0495847
-0.0010082
0.0221583
5.60275e-05
-0.00975146
0.00622728
-0.00310534
0.00889832
0.0227569
-0.0478621
-0.020463
-0.0210897
0.00497066
-0.0216235
0.0109896
0.00950559
-0.00586635
-0.0191619
0.0150245
-0.0354504
-0.0414435
-0.0103897
-0.0157249
0.0107651
-0.0138536
0.029649
0.0217111
0.0121256
-0.0125551
-0.0246405
-0.0143689
-0.00132144
-0.0152065
-0.0135014
-0.0616684
0.00446644
0.0131961
0.00184251
-0.0264863
0.0240056
-0.022639
-0.0358398
-0.0496678
0.014446
0.0231006
-0.00134956
-0.0206363
0.0238984
-0.0491612
0.0133731
-0.0108971
0.0121211
-0.0338415
0.000387101
0.0194755
0.0414181
0.0222427
-0.0195981
-0.0151646
0.00872582
-0.00293821
0.0224216
-0.0243307
-0.0238741
-0.0103963
0.00713414
-0.019003
-0.0243214
0.0572603
-0.00158635
-0.0556322
-0.027208
-0.027281
0.0123603
0.00693027
-0.0252432
-0.0156157
-0.023278
-0.00278259
-0.0219097
-0.00232026
-0.0248635
-0.0161357
0.0319771
-0.00838416
-0.0343214
0.0085026
0.0149228
-0.0232401
0.00134715
-0.00819915
0.034623
0.0302304
0.00525078
-0.0152086
-0.00494652
-0.0531104
-0.0415981
-0.0733672
0.0105379
0.047113
-0.0499027
-0.0436846
0.0254882
-0.0122909
-0.0815871
0.0162487
-0.0306345
-0.0429457
-0.00712417
0.0536672
0.00375447
-0.0295334
-0.000774881
-0.0152617
0.00610759
-0.0209432
-0.0256945
-0.00380439
0.00893014
0.00436975
-0.0165978
-0.000424792
-0.019612
-0.000658458
-0.0236635
-0.0313666
0.00535018
-0.0526355
0.0414083
0.0174994
0.00496065
-0.00862319
-0.027595
-0.0151155
0.00164407
0.0224591
0.0306184
-0.0327666
-0.00757195
-0.0241647
0.00683413
-0.0844453
-0.000786968
-0.0207502
-0.0388482
0.0550714
0.009508
0.00118187
0.00206971
-0.016115
-0.00431522
-0.0377605
-0.0236706
-0.0538416
-0.00779863
-0.0670738
-0.0299977
-0.0389383
-0.0258927
-0.0111342
-0.0379783
0.00401859
-0.0323578
-0.0617118
0.0345183
0.00837965
-0.0179516
-0.0358452
-0.0236981
-0.0290045
-0.0181817
-0.0030726
-0.0257923
-0.00907837
0.0583826
0.164124
0.0255006
0.105525
0.061812
0.109898
-0.0787003
0.0269183
0.145993
0.10684
-0.0555308
-0.108598
-0.0979948
0.00643662
0.0235984
0.110063
0.106468
0.160334
0.025719
-0.00627921
0.0991357
-0.143645
-0.109766
0.0812494
0.0715623
-0.142698
0.0121158
-0.000452823
0.014086
0.0237496
-0.0294377
-0.0359629
-0.0564663
-0.0620634
0.0551015
0.313436
-0.173443
-0.0345338
0.243043
0.0315092
-0.123622
0.155679
0.000115579
-0.0707989
0.198689
0.100994
-0.0496697
0.0113139
0.0403078
0.0494374
0.0113218
-0.0159095
0.0508511
0.119904
-0.0289499
-0.0247716
0.100812
0.0592846
0.0186837
0.135738
-0.0766094
0.011279
0.228626
0.1805
-0.0306367
-0.122608
-0.0598494
0.0217435
-0.0261915
-0.0952015
0.0288945
-0.0894225
0.000259363
-0.0668488
-0.0137564
0.043366
0.258442
-0.00649843
0.104164
0.0616661
-0.0576645
0.110019
0.235549
0.220946
-0.1112
-0.0606013
0.168054
0.194664
-0.0664585
-0.214048
-0.0502701
-0.112474
0.142658
-0.105828
-0.21725
-0.171466
-0.0127518
-0.0393771
0.151657
0.108397
-0.000179717
0.1274
-0.0752031
-0.180883
-0.0163686
-0.04704
-0.0493202
-0.120971
-0.0130579
-0.00494296
-0.0429033
0.00316916
0.0897347
-0.0765384
-0.133437
0.0266951
0.00192457
-0.0967424
0.00948522
-0.0957476
-0.106385
0.138717
0.021642
0.0256515
0.177225
0.0982504
0.23281
0.0331191
-0.0496505
0.0479913
0.0113834
0.103908
0.0521569
-0.129541
0.0690045
-0.129647
0.132364
-0.207052
-0.0243663
-0.0429738
0.0963454
-0.015595
0.0320769
0.0948362
0.0583229
0.0257994
0.155356
0.192235
0.00601376
-0.014704
-0.0267912
0.0807087
-0.0311548
0.0787454
-0.190768
-0.096501
-0.0120552
-0.0699528
-0.0815164
0.15207
-0.10234
-0.146556
-0.128722
-0.00272101
0.0802735
0.0171562
-0.0153483
-0.0198058
-0.0179394
0.0963897
0.152091
0.0978648
-0.00500411
-0.0456188
0.0642939
0.0294169
-0.0566461
-0.277772
-0.248556
-0.0618355
-0.0341497
-0.0377693
0.0226273
0.10439
0.0900142
0.292312
0.113222
-0.0189853
0.0155331
0.056683
-0.160453
-0.132833
0.0201035
0.0475458
0.0473939
-0.0581358
-0.00423208
-0.0448944
0.0494779
-0.0283368
-0.0772175
-0.042622
-0.00367753
0.0404797
0.0231575
0.0303292
0.03693
0.0457658
0.0369345
0.109789
0.0377621
0.0787872
-0.0503349
-0.2144
-0.066217
-0.280908
-0.0386421
-0.196022
-0.119217
-0.0386369
0.00817692
0.0215979
0.0281724
0.14626
-0.0121924
0.0297358
0.044174
0.044331
-0.0150267
-0.207272
-0.0878542
-0.0143136
-0.0771415
-0.28651
-0.15685
0.0753449
0.0275468
0.037431
0.14037
0.0383959
-0.183591
-0.116289
0.0112998
-0.0114032
-0.0692056
-0.0204147
-0.123472
0.0397986
0.023039
-0.0376713
0.0142087
0.253999
0.0172567
-0.0177919
-0.0291053
-0.0815666
0.0119604
0.0294369
0.0231967
0.0260711
0.0116052
-0.00620932
-0.023603
-0.0193605
0.0301441
0.0317534
-0.0212642
-0.0192614
0.00746522
-0.0177748
0.0514831
0.0309191
-0.00349134
-0.02163
-0.00265161
-0.0348193
-0.0324032
-0.0463263
-0.00550216
-0.0555005
0.00908924
0.0204946
0.00106941
-0.044693
-0.00400316
-0.00020044
-0.0337281
-0.0155361
-0.0374613
-0.00943562
-0.00253187
0.06222
-0.000121806
-0.0240881
-0.00483343
0.0450906
0.0190296
-0.0389777
-0.0276896
0.0414603
0.00530881
-0.0477032
0.0274341
0.0239737
-0.00155662
0.000452641
-0.0342998
-0.0417213
-0.0388313
0.0107658
-0.0643806
-0.0543492
-0.0316352
-0.0120584
-0.0520125
-0.0128979
-0.00699749
0.0175398
0.029826
0.0187328
0.028175
-0.00915615
0.00404939
-0.0158988
0.0314706
-0.0209517
-0.0132465
-0.0364458
0.00208947
-0.0299367
-0.0632706
0.00417733
0.0103379
0.000740943
-0.0205002
-0.0270199
-0.00728588
-0.0367456
0.00680884
0.0218286
-0.0156604
-0.00360752
0.0072783
0.0327027
0.000355447
-0.00152971
-0.0536947
-0.00875912
0.0169186
-0.0050729
-0.0455965
-0.0122102
-0.00117549
0.00420406
0.0144496
0.0272689
0.000750224
-0.0153379
-0.0181923
-0.0409017
0.00224575
-0.0509784
-0.011211
0.00265498
-0.019227
-0.0224435
-0.0196568
-0.00382578
-0.00526348
-0.0533939
-0.0178811
-0.034654
0.000121463
-0.000955114
-0.0185869
-0.0347802
0.0269698
0.0189342
-0.0186845
-0.0349255
0.0136961
0.0287399
0.0353533
-0.0262436
-0.00159088
-0.0404048
-0.0202928
-0.00434365
6.86755e-05
-0.0168217
-0.00265899
-0.00894241
0.071116
0.00558251
-0.0338506
-0.00707612
0.0109794
-0.00513627
-0.0372508
0.000442964
-0.0211476
-0.00543388
-0.00274576
0.000380089
-0.0206934
-0.00411479
-0.0204987
-0.0141054
0.0140576
0.0107205
-0.016454
-0.0152873
0.00558921
-0.0258561
0.00294713
-0.0011661
-0.014336
0.0022043
-0.0686072
-0.0188894
0.0173259
-0.0136482
-0.0580101
-0.00783486
0.00159908
-0.0216707
0.00536203
0.00348666
-0.00357635
0.0109814
-0.0104197
-0.0104625
-0.050385
0.00440677
-0.00609186
-0.063224
0.00119268
0.0138626
-0.0902972
-0.0208249
0.057762
0.0510011
-0.0878984
-0.000378695
-0.0183148
-0.0573573
0.0289515
0.0263658
0.00159791
-0.0233999
-0.00863026
-0.00776207
-0.0150989
-0.0137307
-0.0037058
0.000805819
0.00496014
0.00278201
-0.0134614
0.00514201
-0.0042121
-0.00328736
-0.00341684
-0.028939
0.00259897
-0.0163595
0.00399666
-0.0259776
-0.000752045
-0.0179482
-0.0408833
-0.0820351
-0.00516114
-0.00955187
-0.0279221
-0.055586
0.0111779
0.0146916
0.0228093
-0.0529135
-0.00712828
-0.0033111
-0.0274105
0.0052251
0.00456502
-0.0229007
-0.0156983
-0.0424888
-0.0140788
-0.0516616
-0.019951
-0.0646229
0.00363761
-0.00961641
-0.0300138
-0.0330346
-0.021099
-0.030263
-0.0651049
-0.00914709
-0.00781795
-0.0525595
-0.036439
0.00318019
-0.0372128
-0.0413081
-0.020159
-0.000443285
-0.0419323
0.0109391
-0.0424503
-0.0306585
-0.0488074
0.0665821
0.0622088
0.0495321
0.0192001
-0.0842243
0.0452547
-0.0787684
0.0115383
-0.0370622
0.037292
0.17909
-0.0360161
-0.00143711
0.0952599
0.0562
0.130206
0.134445
0.10937
-0.0298785
0.0312233
-0.131116
0.0293696
-0.0653194
0.076851
-0.0588131
-0.0362226
-0.00109353
-0.168954
-0.0502106
0.0185332
-0.03601
0.114945
0.0720592
-0.0713771
-0.243872
-0.111463
0.00181336
-0.158598
-0.0763703
0.105953
0.0889669
-0.0655062
0.0319041
0.079314
0.012782
0.0566739
0.102584
0.049101
0.137355
0.0572953
0.114988
-0.000425403
0.117344
0.0760302
-0.0482353
-0.00465843
-0.031202
0.141411
-0.0528651
-0.0897471
-0.048995
-0.11869
-0.107404
-0.0211492
-0.0881329
-0.111867
-0.000272378
0.0166391
0.0841457
-0.0123283
0.106194
-0.00613876
0.0794941
0.0547872
0.090769
0.0795337
0.160555
-0.0530178
0.0241883
-0.0177255
0.022192
-0.0933044
0.00347051
-0.0262752
0.0244161
-0.0923618
-0.121711
-0.0942349
-0.0347071
-0.0631075
0.0285826
-0.0306345
-0.0278311
0.0285179
-0.0499818
-0.0726849
-0.015974
-0.146612
-0.152686
0.0124833
-0.146382
0.0241387
0.0278135
0.130576
-0.00817058
0.0623301
0.0614777
0.0401273
-0.0782326
-0.0959106
0.0490127
0.0603493
0.0570812
0.148013
-0.0725081
0.0515961
0.0435001
-0.0429561
0.101159
-0.106598
-0.131958
-0.022476
0.132815
0.223542
0.0439024
-0.036683
-0.109536
-0.0260979
-0.218803
-0.278362
-0.130523
-0.0549401
0.018315
0.105904
0.0490367
-0.0498457
-0.120336
-0.13976
0.0169172
0.377804
0.519479
0.358602
0.283827
0.148353
0.111169
0.126888
-0.021333
-0.117778
0.0517591
0.17131
0.00161241
0.059581
0.0432712
0.110306
0.0177036
-0.0129013
0.135432
0.231367
0.0693898
-0.083821
-0.0660697
-0.0719199
-0.028296
0.110629
0.0365645
0.0843512
0.0446789
0.00169916
-0.0691408
-0.140604
-0.0356032
0.135497
-0.0376701
-0.0569532
-0.00416919
0.0279384
0.05488
0.156306
-0.208723
0.0826606
-0.0405849
0.093796
-0.018567
0.0606344
0.119271
-0.063265
0.0806272
-0.122125
-0.0204319
0.253269
0.142397
-0.00780322
-0.0864266
-0.0482716
-0.0478547
-0.00115939
0.0251456
-0.0678144
-0.0113785
-0.0522735
-0.0478456
-0.0159166
-0.0461263
0.0801818
0.0816096
0.0615649
-0.0703009
-0.0492073
-0.164955
0.0429918
-0.123075
0.000344431
-0.03475
0.0361557
-0.0308868
-0.00316675
-0.0759358
-0.0379317
0.00735892
0.00331051
-0.0632669
-0.00510548
-0.0570737
0.00725186
0.0230229
0.0814452
0.0786476
0.036311
-0.0481458
-0.058346
-0.107726
-0.00146013
0.015191
0.0414617
-0.036821
-0.0519581
-0.00739092
-0.263241
-0.247211
-0.0125542
0.0121931
0.0387043
0.0325228
0.0215906
-0.0334472
-0.0586162
0.0612176
-0.1268
-0.178416
-0.0809423
-0.0693415
-0.0336015
-0.135867
-0.09655
-0.0424075
0.0192203
-0.0494776
-0.142974
-0.220339
-0.101367
-0.154277
-0.0710474
-0.168003
-0.0800852
-0.00579259
-0.00533635
0.109037
0.109309
-0.00909202
-0.0341487
-0.0842188
0.146098
-0.0792698
-0.118434
6.96531e-05
0.0443853
0.00256006
-0.0695609
-0.169784
-0.137091
0.0764063
-0.0319614
-0.0918099
0.0680164
0.0793904
0.060392
0.088901
-0.158157
0.0720294
0.18344
0.0693251
0.029989
0.141488
0.0427705
0.0906714
0.148514
-0.0218376
0.0317013
0.0989845
-0.0652353
-0.0435155
-0.000144482
0.0652132
0.0234858
0.0112642
-0.105296
-0.166089
0.175628
0.0454812
-0.137102
-0.336763
-0.0383328
-0.0957752
-0.227727
-0.42124
0.0740162
0.102183
-0.0869405
-0.0669946
-0.0338854
-0.064798
-0.0327172
-0.120241
0.101926
0.0908979
-0.0979421
-0.21472
0.180299
0.0721795
0.0514141
0.0557104
-0.0923749
-0.0139354
-0.132677
-0.149938
0.0270409
-0.238648
-0.00216762
-0.0166831
0.0994904
-0.0831614
0.02047
-0.0748643
0.116766
0.0758024
0.0747208
0.0824559
-0.115179
-0.0207807
0.122245
0.144952
-0.142912
0.036145
0.120757
-0.00942054
-0.0456509
-0.0939359
-0.0165065
0.0899048
0.124388
0.0675003
0.00146226
0.0626256
-0.0465261
-0.0687089
-0.0623201
0.0320855
0.0853903
-0.108522
0.0110199
-0.225457
-0.0959381
0.00193537
-0.0329348
-0.0190401
0.104463
-0.043286
-0.0133024
0.0752191
-0.0713568
-0.0728751
-0.113067
0.015402
0.159457
-0.261059
0.0653168
0.0874993
0.0123418
-0.156903
-0.165796
-0.0211449
-0.0892095
0.12965
0.136893
0.0336863
0.0603366
0.219194
0.117741
0.000457279
0.0125626
0.0697211
-0.00708062
0.0167519
-0.0852777
0.0495984
0.120822
0.0177287
-0.228334
-0.168282
0.0474
0.0931997
-0.0634558
0.0417857
0.0794454
0.0163824
-0.0570273
0.0187304
0.00833872
-0.0618822
0.0518164
0.0208788
-0.180472
-0.0376349
0.0649271
-0.157358
-0.134336
-0.0126763
-0.0137803
0.0388062
-0.0667657
0.00914446
0.169494
0.0710019
0.13259
-0.179062
0.0747233
0.264347
0.0878829
-0.219798
-0.0435355
-0.00462689
0.0224049
0.085196
-0.103979
-0.0150004
0.0243297
0.101628
0.0176058
-0.0848578
0.0539306
0.0763527
-0.00667447
-0.0639522
0.0321645
0.0472564
0.0359656
-0.0116898
0.00368171
-0.107817
0.0211968
-0.0196573
-0.0170075
-0.0345065
-0.0375775
-0.164269
0.228707
0.296612
0.0255752
0.0456074
-0.0545838
-0.00758261
-0.0498598
